<?xml version="1.0"?>
<opencv_storage>
<opencv_ml_svm>
  <format>3</format>
  <svmType>C_SVC</svmType>
  <kernel>
    <type>RBF</type>
    <gamma>9.0000000000000002e-01</gamma></kernel>
  <C>100.</C>
  <term_criteria><epsilon>1.1920928955078125e-07</epsilon>
    <iterations>1000</iterations></term_criteria>
  <var_count>81</var_count>
  <class_count>9</class_count>
  <class_labels type_id="opencv-matrix">
    <rows>9</rows>
    <cols>1</cols>
    <dt>i</dt>
    <data>
      1 2 3 4 5 6 7 8 9</data></class_labels>
  <sv_total>188</sv_total>
  <support_vectors>
    <_>
      7.02254713e-01 7.02254713e-01 1.35782693e-05 0. 0. 0. 0. 0.
      8.16489086e-02 4.95294333e-01 4.95294333e-01 4.77479148e-07 0. 0.
      0. 1.17419668e-01 4.95294333e-01 4.95294333e-01 4.87133056e-01 0.
      0. 0. 0. 0. 5.02554178e-01 5.02554178e-01 5.02554178e-01
      7.02980220e-01 7.02980220e-01 4.71373461e-02 0. 0. 1.18545853e-02
      4.61056270e-02 1.13532301e-02 1.74826337e-03 4.07415926e-01
      4.07415926e-01 1.91863370e-03 0. 0. 4.07415926e-01 4.07415926e-01
      4.07415926e-01 4.07415926e-01 4.87759024e-01 3.72134591e-03 0. 0.
      0. 2.08516344e-01 4.87759024e-01 4.87759024e-01 4.87759024e-01
      5.87998211e-01 5.87998211e-01 2.44168520e-01 1.73402831e-01
      4.55642521e-01 4.99510877e-02 4.33623418e-02 3.05155162e-02
      6.43374259e-03 3.88727725e-01 3.14237058e-01 4.82898700e-04
      3.51364433e-04 3.88727725e-01 3.88727725e-01 3.88727725e-01
      3.76596749e-01 3.88727725e-01 5.58465779e-01 1.61206967e-03 0. 0.
      5.58465779e-01 2.24593237e-01 8.56187418e-02 3.15584317e-02
      5.58465779e-01</_>
    <_>
      5.69232166e-01 5.69232166e-01 1.38327673e-01 0. 0. 0. 0.
      5.57288788e-02 5.69232166e-01 5.68567097e-01 1.30484715e-01
      7.64522189e-03 0. 0. 0. 8.62099454e-02 5.68567097e-01
      5.68567097e-01 0. 0. 0. 0. 0. 0. 2.93404490e-01 9.42186058e-01
      9.84789506e-02 5.38590789e-01 5.38590789e-01 5.38590789e-01 0. 0.
      0. 1.64626256e-01 1.76857874e-01 2.56905973e-01 4.44674313e-01
      4.44674313e-01 8.29578936e-02 0. 0. 0. 4.44674313e-01
      4.44674313e-01 4.44674313e-01 6.31090462e-01 0. 0. 0. 0. 0.
      3.57198089e-01 2.63738900e-01 6.31090462e-01 5.68316638e-01
      5.68316638e-01 2.85789996e-01 8.91351178e-02 4.61451471e-01
      7.13819116e-02 1.64751828e-01 1.11566469e-01 3.33664566e-02
      4.30846363e-01 2.22603500e-01 5.60258813e-02 0. 4.30846363e-01
      1.21910132e-01 4.30846363e-01 4.30846363e-01 4.30846363e-01
      5.68520725e-01 0. 0. 0. 5.68520725e-01 1.52619600e-01
      2.38923039e-02 2.84967292e-02 5.68520725e-01</_>
    <_>
      5.32235265e-01 5.32235265e-01 3.36875200e-01 0. 0. 0.
      3.29761207e-02 1.74038440e-01 5.32235265e-01 4.88367945e-01
      2.01021716e-01 2.64502279e-02 0. 0. 0. 4.88367945e-01
      4.88367945e-01 4.88367945e-01 0. 0. 0. 0. 0. 0. 7.76448548e-01
      6.20860040e-01 0. 4.48297054e-01 5.21718442e-01 5.21718442e-01 0.
      0. 5.73482212e-05 4.08475697e-01 2.06533313e-01 1.99826971e-01
      4.00689036e-01 3.73526096e-01 1.31743640e-01 0. 0. 4.70986153e-04
      4.75332260e-01 4.75332260e-01 4.75332260e-01 6.67877436e-01 0. 0.
      0. 0. 1.81809068e-04 2.92618930e-01 1.24843955e-01 6.67877436e-01
      5.33921599e-01 5.33921599e-01 5.28788924e-01 2.42438745e-02
      2.36156851e-01 4.53659631e-02 2.34376788e-01 1.61598817e-01
      7.37783834e-02 4.39285964e-01 1.37523621e-01 6.63514510e-02
      3.32528190e-03 4.39285964e-01 8.61686766e-02 4.39285964e-01
      4.39285964e-01 4.39285964e-01 5.73882520e-01 0. 0. 5.37642918e-05
      5.73882520e-01 7.81071931e-02 8.82549118e-03 8.22245423e-03
      5.73882520e-01</_>
    <_>
      6.63049161e-01 3.33693981e-01 0. 0. 0. 0. 0. 5.25424555e-02
      6.63049161e-01 6.45257831e-01 2.80985702e-02 0. 0. 0. 0.
      1.45976096e-01 3.72483641e-01 6.45257831e-01 0. 0. 0. 0. 0. 0.
      8.85196209e-01 2.95065403e-01 0. 4.62618440e-01 4.62618440e-01
      4.62618440e-01 0. 0. 1.13811786e-03 2.68609315e-01 2.59159416e-01
      4.62618440e-01 4.79027510e-01 2.67000139e-01 7.77789652e-02 0. 0.
      2.68516806e-03 4.79027510e-01 4.79027510e-01 4.79027510e-01
      6.98711336e-01 0. 0. 0. 0. 0. 1.18099660e-01 5.17944954e-02
      6.98711336e-01 4.67741966e-01 4.67741966e-01 4.67741966e-01
      4.98191305e-02 4.67741966e-01 8.38062763e-02 2.72368640e-01
      1.47718579e-01 1.21190079e-01 4.41156924e-01 1.10084318e-01
      5.73421344e-02 0. 4.41156924e-01 1.18892908e-01 4.41156924e-01
      4.33097541e-01 4.41156924e-01 5.69779098e-01 0. 0. 0.
      5.69779098e-01 1.42514810e-01 4.99577681e-03 5.48913097e-03
      5.69779098e-01</_>
    <_>
      1.12157993e-01 4.87032235e-02 6.37526959e-02 1.34071503e-02
      5.13494074e-01 5.13494074e-01 5.13494074e-01 4.24944043e-01
      6.37965128e-02 3.12842488e-01 1.10321334e-02 5.14308689e-03
      4.74388935e-02 8.68899822e-01 2.09214879e-04 1.29564088e-02
      6.03387989e-02 3.63682896e-01 8.86259899e-02 0. 0. 6.10614344e-02
      9.80286717e-01 0. 1.77757423e-02 4.63386253e-02 1.23340033e-01
      4.58741337e-01 4.58741337e-01 2.61132926e-01 7.73571292e-03
      1.12441247e-02 4.60590265e-04 4.58741337e-01 4.58741337e-01
      2.92004347e-01 5.32337487e-01 3.74516934e-01 3.27488184e-02
      8.88723973e-03 3.36875096e-02 2.34253472e-03 4.44888547e-02
      5.32337487e-01 5.32337487e-01 6.52134299e-01 0. 4.82741510e-04
      1.56659423e-03 1.04966844e-02 1.79566070e-03 1.00736104e-01
      3.64235073e-01 6.52134299e-01 3.92771840e-01 3.92771840e-01
      3.92771840e-01 3.92771840e-01 3.92771840e-01 6.63727075e-02
      3.92771840e-01 2.47704610e-01 6.85198531e-02 4.59221154e-01
      1.09280184e-01 6.65600896e-02 1.05943471e-01 5.96531391e-01
      8.16238895e-02 4.11585020e-03 1.92832530e-01 5.96531391e-01
      5.71857512e-01 0. 9.41230275e-04 5.65352291e-02 5.71857512e-01
      7.29871392e-02 5.54771870e-02 4.03052904e-02 5.71857512e-01</_>
    <_>
      4.47239637e-01 4.47239637e-01 3.11391234e-01 0. 4.47239637e-01
      2.76708826e-02 2.87325829e-01 1.23098105e-01 4.47239637e-01
      5.37175834e-01 1.13828145e-01 2.01995987e-02 0. 2.56838053e-01
      9.05093402e-02 2.03566134e-01 5.37175834e-01 5.37175834e-01
      4.83201593e-02 0. 0. 0. 8.59994709e-01 0. 2.88603753e-01
      3.58453810e-01 1.94194227e-01 5.38931668e-01 5.38931668e-01
      5.38931668e-01 0. 2.19794996e-02 0. 9.87597033e-02 1.53245449e-01
      2.99257755e-01 4.56047833e-01 3.84385943e-01 1.25593632e-01 0. 0.
      0. 4.56047833e-01 4.56047833e-01 4.56047833e-01 5.37277043e-01 0.
      0. 0. 0. 0. 4.41892445e-01 4.71203089e-01 5.37277043e-01
      5.73238313e-01 5.73238313e-01 4.63573992e-01 7.98399299e-02
      3.25917393e-01 3.30836177e-02 6.81654587e-02 6.17200620e-02
      4.86255577e-03 4.32622403e-01 2.12470353e-01 7.57867619e-02
      1.16591378e-04 4.32622403e-01 9.47656557e-02 4.32622403e-01
      4.32622403e-01 4.32622403e-01 5.70581079e-01 0. 0. 0.
      5.70581079e-01 1.04375407e-01 2.32982263e-02 7.85937309e-02
      5.70581079e-01</_>
    <_>
      5.24750948e-01 5.24750948e-01 3.31575722e-01 5.66923246e-02
      9.97731015e-02 5.23336269e-02 9.30270627e-02 1.84836656e-01
      5.24750948e-01 5.08380830e-01 2.34591573e-01 7.60337636e-02
      4.87091020e-02 8.19951147e-02 5.05437441e-02 3.83542120e-01
      5.08380830e-01 5.08380830e-01 2.19714120e-02 5.50232306e-02
      1.86477378e-01 1.50181413e-01 5.21250367e-01 5.21250367e-01
      5.21250367e-01 3.30483437e-01 9.81367007e-02 5.47913015e-01
      5.47913015e-01 5.47913015e-01 7.51611311e-04 2.11469624e-02 0.
      1.32943511e-01 1.74564078e-01 2.12857142e-01 4.51415062e-01
      3.79919797e-01 1.88807651e-01 0. 1.31669119e-02 1.50950141e-02
      4.51415062e-01 4.51415062e-01 4.51415062e-01 5.89575708e-01
      1.15325926e-02 3.59700732e-02 9.62706935e-03 2.73622990e-01
      5.23536727e-02 3.58189732e-01 3.02463263e-01 5.89575708e-01
      5.28097868e-01 5.28097868e-01 5.28097868e-01 7.21817091e-02
      3.81056219e-01 3.60045470e-02 6.30171746e-02 4.80950698e-02
      8.32355861e-03 4.28493261e-01 2.27007136e-01 1.03577048e-01 0.
      4.28493261e-01 1.24205306e-01 4.28493261e-01 4.28493261e-01
      4.28493261e-01 5.68775535e-01 8.41441506e-05 2.81135202e-04
      2.01358445e-04 5.68775535e-01 1.41779467e-01 2.01963726e-02
      5.73940575e-02 5.68775535e-01</_>
    <_>
      5.74655294e-01 5.74655294e-01 2.99841072e-02 0. 0. 0. 0.
      5.17357476e-02 5.74655294e-01 5.07688284e-01 2.33030111e-01
      2.47788057e-01 1.11504972e-01 2.66256928e-01 1.22355230e-01
      8.76839906e-02 5.07688284e-01 5.07688284e-01 0. 3.48463170e-02
      1.17973439e-01 9.42470357e-02 6.49322569e-01 6.49322569e-01
      1.90296829e-01 2.90629119e-01 7.47333691e-02 5.53678513e-01
      5.53678513e-01 5.53678513e-01 0. 0. 0. 8.82528722e-02
      1.24857225e-01 2.26745084e-01 4.63560581e-01 3.60565275e-01
      7.62155578e-02 0. 0. 0. 4.63560581e-01 4.63560581e-01
      4.63560581e-01 5.93826294e-01 0. 0. 0. 0. 0. 3.72517496e-01
      3.87352377e-01 5.93826294e-01 5.46393037e-01 5.46393037e-01
      5.38511097e-01 5.78834005e-02 3.06974679e-01 4.89133969e-02
      6.30776584e-02 5.80391362e-02 1.16101978e-02 4.33049649e-01
      1.73527628e-01 7.50332400e-02 1.98537993e-04 4.33049649e-01
      1.49239779e-01 4.33049649e-01 4.33049649e-01 4.33049649e-01
      5.66129506e-01 0. 0. 0. 5.66129506e-01 1.72500238e-01
      2.35125739e-02 5.02966829e-02 5.66129506e-01</_>
    <_>
      6.96331382e-01 7.12329149e-02 0. 0. 0. 0. 5.20348102e-02
      1.24548249e-01 6.96331382e-01 5.92199028e-01 0. 0. 0. 0. 0.
      2.45160222e-01 3.51043135e-01 6.77643418e-01 0. 0. 0. 0. 0. 0. 0.
      0. 0. 4.38755125e-01 4.38755125e-01 3.95135321e-02 0. 0.
      1.77554116e-01 4.38755125e-01 4.38755125e-01 4.38755125e-01
      4.97137785e-01 0. 0. 0. 0. 8.03169310e-02 4.97137785e-01
      4.97137785e-01 4.97137785e-01 7.04615593e-01 0. 0. 0. 0. 0. 0. 0.
      7.04615593e-01 3.92132491e-01 3.92132491e-01 1.97892413e-01
      7.19601661e-02 3.92132491e-01 3.13071400e-01 3.92132491e-01
      2.91358560e-01 3.92132491e-01 5.62289417e-01 0. 0. 0.
      5.62289417e-01 1.57599106e-01 1.27256736e-01 6.96082711e-02
      5.62289417e-01 5.67490220e-01 0. 0. 0. 5.67490220e-01
      1.67921692e-01 0. 0. 5.67490220e-01</_>
    <_>
      4.92228478e-01 1.32172406e-01 9.17192623e-02 0. 6.81176502e-03 0.
      4.92228478e-01 4.92228478e-01 4.92228478e-01 4.07125086e-01
      4.07125086e-01 4.07125086e-01 0. 5.79560548e-02 0. 4.07125086e-01
      4.04746652e-01 4.07125086e-01 1.72735795e-01 6.89826131e-01
      6.89826131e-01 0. 0. 0. 9.08200741e-02 5.01530506e-02
      2.81483326e-02 4.42563355e-01 4.42563355e-01 9.57188085e-02 0.
      9.70012229e-03 8.37349817e-02 4.42563355e-01 4.42563355e-01
      4.42563355e-01 4.70708936e-01 1.51520863e-01 1.89005375e-01 0.
      2.21687347e-01 3.46964784e-02 4.70708936e-01 4.70708936e-01
      4.70708936e-01 6.43675029e-01 2.20717385e-01 3.33705753e-01 0.
      9.81487334e-03 0. 6.44291341e-02 2.48087961e-02 6.43675029e-01
      3.89894098e-01 3.89894098e-01 3.28523964e-01 7.36368969e-02
      3.89894098e-01 2.37033039e-01 3.89894098e-01 2.57843018e-01
      3.89894098e-01 5.53963542e-01 3.61047382e-03 2.79992889e-03
      7.13227270e-03 5.53963542e-01 1.98843002e-01 1.62155613e-01
      8.90874416e-02 5.53963542e-01 5.61973512e-01 2.98343017e-03
      3.95561988e-03 3.05597903e-03 5.61973512e-01 2.16590747e-01
      2.88152398e-04 9.60508041e-05 5.61973512e-01</_>
    <_>
      6.90548301e-01 1.42822504e-01 0. 0. 0. 0. 1.27985394e-02
      1.37224078e-01 6.90548301e-01 4.01717633e-01 0. 0. 0. 0. 0.
      3.60655300e-02 3.85035962e-01 8.25127423e-01 0. 0. 0. 0. 0. 0. 0.
      0. 0. 4.42822188e-01 4.42822188e-01 3.68566997e-02 0. 0.
      1.17307365e-01 4.42822188e-01 4.42822188e-01 4.42822188e-01
      4.98167843e-01 0. 0. 0. 0. 4.83704172e-02 4.98167843e-01
      4.98167843e-01 4.98167843e-01 7.04615593e-01 0. 0. 0. 0. 0. 0. 0.
      7.04615593e-01 3.92521918e-01 3.92521918e-01 1.63248718e-01
      7.82758221e-02 3.92521918e-01 2.93336213e-01 3.92521918e-01
      3.26937705e-01 3.92521918e-01 5.61215222e-01 0. 0. 0.
      5.61215222e-01 1.51167452e-01 1.32780775e-01 9.50045511e-02
      5.61215222e-01 5.68756044e-01 0. 0. 0. 5.68756044e-01
      1.54500067e-01 0. 0. 5.68756044e-01</_>
    <_>
      6.89367592e-01 6.89367592e-01 1.33413866e-01 0. 0. 0. 0. 0.
      1.57681763e-01 5.82249582e-01 4.66172278e-01 5.07270172e-03 0. 0.
      0. 1.26045063e-01 2.87970841e-01 5.82249582e-01 4.98753130e-01 0.
      0. 0. 0. 0. 4.98753130e-01 4.98753130e-01 4.98753130e-01
      6.99558496e-01 6.99681938e-01 1.13366798e-01 0. 0. 8.44084751e-03
      3.27541418e-02 6.97592972e-03 5.80953946e-03 4.16771084e-01
      4.16771084e-01 9.38043464e-03 0. 0. 4.16771084e-01 4.16771084e-01
      3.56732249e-01 4.16771084e-01 4.62111443e-01 0. 0. 0. 0.
      3.75761122e-01 4.62111443e-01 4.62111443e-01 4.62111443e-01
      6.28042877e-01 6.28042877e-01 2.79942542e-01 2.01839969e-01
      2.84438163e-01 3.42535339e-02 5.27839176e-02 2.87718195e-02
      7.36667169e-03 3.79100382e-01 3.75410199e-01 7.38119194e-03
      2.33670068e-03 3.79100382e-01 3.79100382e-01 3.79100382e-01
      3.69640708e-01 3.79100382e-01 5.50780475e-01 0. 0. 0.
      5.50780475e-01 2.63539433e-01 1.11553252e-01 5.02509475e-02
      5.50780475e-01</_>
    <_>
      5.75583637e-01 5.75583637e-01 1.60215963e-02 0. 0. 0. 0.
      1.03121614e-02 5.75583637e-01 5.65738201e-01 1.24594569e-01
      1.75882261e-02 0. 0. 0. 1.35419041e-01 5.65738201e-01
      5.65738201e-01 2.47574020e-02 2.83497409e-03 8.50492250e-03 0. 0.
      0. 4.47749138e-01 6.53024077e-01 6.04869783e-01 6.78672969e-01
      6.78672969e-01 3.71823572e-02 2.64124301e-05 6.25108851e-06
      1.49446025e-01 1.27888471e-01 3.67830656e-02 1.74945086e-01
      4.29466456e-01 2.70531148e-01 4.97549167e-03 1.76811909e-06
      1.70572344e-02 4.29466456e-01 4.29466456e-01 4.29466456e-01
      4.29466456e-01 4.78644460e-01 1.41968234e-02 4.13420759e-02 0.
      2.30087101e-01 1.54810578e-01 4.78644460e-01 4.78644460e-01
      4.78644460e-01 5.09865463e-01 5.09865463e-01 1.17887974e-01
      6.41478132e-03 6.07101060e-02 4.01024163e-01 5.09865463e-01
      6.55633584e-02 1.79655880e-01 4.79622841e-01 3.70146744e-02
      2.57937820e-03 7.95210188e-04 1.65986493e-01 4.79622841e-01
      4.79622841e-01 2.14775145e-01 4.79622841e-01 6.44305885e-01
      9.27984598e-04 2.17014109e-03 1.67835935e-03 3.94289017e-01
      7.69544989e-02 4.08405215e-02 1.56553928e-02 6.44305885e-01</_>
    <_>
      5.73190689e-01 5.73190689e-01 9.21963081e-02 0. 0. 0. 0.
      1.15522454e-02 5.73190689e-01 5.64277887e-01 1.70463204e-01
      4.64423373e-03 0. 0. 0. 1.00286096e-01 5.64277887e-01
      5.64277887e-01 5.17425537e-02 0. 0. 0. 0. 0. 4.77565348e-01
      6.30385339e-01 6.04627609e-01 6.79522812e-01 6.79522812e-01
      1.94123182e-02 0. 0. 1.38630465e-01 8.28996301e-02 3.43089849e-02
      2.05107912e-01 4.25792843e-01 2.98744857e-01 6.23761094e-04 0. 0.
      4.25792843e-01 4.25792843e-01 4.25792843e-01 4.25792843e-01
      5.07780910e-01 0. 0. 0. 0. 5.38616590e-02 5.07780910e-01
      4.67443377e-01 5.07780910e-01 5.29356897e-01 5.29356897e-01
      1.14059791e-01 9.85661149e-03 5.45877703e-02 3.25787455e-01
      5.16742587e-01 9.68323424e-02 1.88819364e-01 4.84048992e-01
      3.95346731e-02 1.70489366e-03 1.09617854e-03 1.14750572e-01
      4.84048992e-01 4.84048992e-01 2.07886979e-01 4.84048992e-01
      6.74930692e-01 0. 0. 1.32107164e-03 2.70761102e-01 6.66583180e-02
      6.20122403e-02 2.44350024e-02 6.74930692e-01</_>
    <_>
      4.99866068e-01 5.12627363e-01 3.99315692e-02 1.41492143e-01
      6.47783875e-01 1.67249277e-01 9.01516899e-03 1.28190627e-03
      1.07639022e-01 4.77921307e-01 4.18562591e-01 2.81822458e-02
      4.59839813e-02 4.77921307e-01 1.72210589e-01 1.20227218e-01
      2.96286672e-01 4.77921307e-01 1.98063761e-01 1.27856340e-02
      3.60814482e-02 0. 6.20133817e-01 1.71429485e-01 2.19095379e-01
      5.43042243e-01 4.43014711e-01 5.34479916e-01 6.71522081e-01
      5.04226804e-01 1.01016853e-02 2.60878727e-02 1.00077204e-02
      3.94095257e-02 0. 2.17488362e-03 4.07328695e-01 4.07328695e-01
      2.62632947e-02 8.38297606e-03 1.56952832e-02 4.07328695e-01
      4.07328695e-01 4.06621546e-01 4.07328695e-01 5.04782677e-01
      1.39034964e-04 0. 7.06618128e-04 3.39668877e-02 1.37914509e-01
      4.62530851e-01 5.01236439e-01 5.04782677e-01 5.66220619e-02
      4.97427315e-01 4.97427315e-01 4.97427315e-01 4.97427315e-01
      3.79130468e-02 2.36207917e-02 0. 9.73355211e-03 5.01009762e-01
      2.80353278e-01 1.65067032e-01 2.09815696e-01 6.33018792e-01
      3.59090447e-01 1.84900910e-01 3.87458280e-02 1.65689632e-01
      6.28546894e-01 6.22752414e-04 0. 7.90289044e-03 6.30114377e-01
      2.15672523e-01 1.84471291e-02 1.08170267e-02 3.93139482e-01</_>
    <_>
      6.26790941e-01 6.26790941e-01 0. 0. 0. 0. 0. 0. 4.56079215e-01
      6.65284097e-01 1.65612876e-01 0. 0. 0. 0. 6.09855689e-02
      2.77498841e-01 6.65284097e-01 1.83254421e-01 0. 0. 0. 0. 0.
      2.77169615e-01 4.93994087e-01 7.98495829e-01 6.95530057e-01
      6.95530057e-01 1.14568725e-01 0. 0. 3.00611835e-03 2.86863670e-02
      1.05725685e-02 1.07064866e-01 4.45543766e-01 4.45543766e-01
      1.35341743e-02 0. 0. 5.31056337e-02 4.45543766e-01 4.45543766e-01
      4.45543766e-01 4.98712450e-01 0. 0. 0. 0. 1.27507579e-02
      4.98712450e-01 4.98712450e-01 4.98712450e-01 5.53457022e-01
      5.53457022e-01 1.67978346e-01 1.06405050e-01 5.53457022e-01
      1.78586781e-01 6.11576810e-02 1.83779821e-02 4.36362252e-03
      4.04838890e-01 3.68028522e-01 1.96625013e-02 6.18064031e-02
      4.04838890e-01 1.91914752e-01 4.04838890e-01 4.04838890e-01
      4.04838890e-01 5.66767633e-01 0. 7.37352995e-04 3.11219171e-02
      5.66767633e-01 1.27412930e-01 9.70862359e-02 6.35215342e-02
      5.66767633e-01</_>
    <_>
      4.10237879e-01 4.10237879e-01 4.10237879e-01 3.01045299e-01
      2.06561506e-01 1.55864730e-01 2.40702704e-01 3.27404588e-01
      4.10237879e-01 4.81602281e-01 1.27700105e-01 3.54437530e-02
      4.59047742e-02 7.99567178e-02 2.03378350e-01 4.81602281e-01
      4.81602281e-01 4.81602281e-01 1.29170582e-01 0. 0. 0. 0. 0.
      2.15686038e-01 6.65254474e-01 6.98042095e-01 5.37897766e-01
      5.37897766e-01 3.75689417e-01 3.27069759e-01 3.61507446e-01
      1.29850000e-01 9.12322402e-02 5.14634252e-02 9.65541974e-02
      4.20827359e-01 4.20827359e-01 2.88985074e-02 1.82259753e-02
      5.06372228e-02 3.26475620e-01 4.20827359e-01 4.20827359e-01
      4.20827359e-01 4.97403234e-01 5.93355112e-03 0. 0. 0.
      7.31913298e-02 4.97403234e-01 4.97403234e-01 4.97403234e-01
      6.28821194e-01 6.28821194e-01 2.30469868e-01 6.57222196e-02
      2.62880713e-01 1.41383186e-01 2.23497152e-01 5.20962551e-02
      6.07732311e-02 4.05112982e-01 3.33408594e-01 1.87390521e-02
      3.28756031e-03 4.05112982e-01 4.05112982e-01 4.05112982e-01
      2.52679586e-01 4.05112982e-01 5.62027872e-01 2.43123272e-03
      7.18593888e-04 3.48835508e-03 5.62027872e-01 1.90358371e-01
      9.91867036e-02 2.58620400e-02 5.62027872e-01</_>
    <_>
      6.33240342e-01 4.37825352e-01 0. 0. 0. 0. 0. 0. 6.33240342e-01
      6.72822654e-01 7.75261894e-02 0. 0. 0. 0. 4.32428978e-02
      2.82881945e-01 6.72822654e-01 3.23759407e-01 0. 0. 0. 0. 0.
      2.10810885e-01 5.19976676e-01 7.56293893e-01 6.65400803e-01
      6.65400803e-01 2.58159906e-01 0. 0. 5.82277682e-03 5.22390343e-02
      1.25612440e-02 1.95636168e-01 4.47676748e-01 4.36467618e-01
      2.26710010e-02 0. 0. 5.34074046e-02 4.47676748e-01 4.47676748e-01
      4.47676748e-01 5.08451879e-01 0. 0. 0. 0. 7.83483405e-03
      5.08451879e-01 4.68284875e-01 5.08451879e-01 4.95611638e-01
      4.95611638e-01 4.17071223e-01 1.27083868e-01 4.95611638e-01
      2.51072198e-01 6.10677190e-02 2.38020886e-02 2.69355141e-02
      4.19541687e-01 2.27201208e-01 4.92448881e-02 1.38839364e-01
      4.19541687e-01 2.05939502e-01 4.19541687e-01 4.19541687e-01
      4.19541687e-01 5.63536763e-01 1.69650663e-03 0. 3.05627082e-02
      5.63536763e-01 1.81335643e-01 6.72070384e-02 5.75772785e-02
      5.63536763e-01</_>
    <_>
      3.87322664e-01 3.87322664e-01 2.13383034e-01 8.48905146e-02
      2.08035633e-01 3.87322664e-01 3.87322664e-01 3.87322664e-01
      3.87322664e-01 4.92695302e-01 0. 0. 0. 1.29217922e-03
      1.55186415e-01 4.92695302e-01 4.92695302e-01 4.92695302e-01
      6.35864913e-01 0. 0. 0. 0. 0. 2.18499243e-01 3.69192362e-01
      6.36257648e-01 4.08022642e-01 4.08022642e-01 2.08427101e-01
      1.71790019e-01 4.08022642e-01 4.08022642e-01 4.08022642e-01
      1.81544989e-01 2.39998639e-01 4.40944284e-01 4.40944284e-01
      1.66816097e-02 0. 3.28244944e-03 1.52141303e-01 4.40944284e-01
      4.40944284e-01 4.40944284e-01 5.57101309e-01 1.04715854e-01 0. 0.
      0. 1.98406614e-02 4.89411801e-01 3.50471079e-01 5.57101309e-01
      5.42532384e-01 5.42532384e-01 1.65834427e-01 7.95475487e-03
      1.57322243e-01 2.13498861e-01 5.07143438e-01 1.87869877e-01
      1.24553256e-01 3.88860613e-01 3.88860613e-01 5.32961003e-02 0.
      3.88860613e-01 3.88860613e-01 3.88860613e-01 2.93256462e-01
      3.88860613e-01 5.09216368e-01 6.94416612e-02 0. 0. 5.09216368e-01
      5.09216368e-01 8.94156620e-02 3.78643759e-02 4.50288236e-01</_>
    <_>
      5.29226124e-01 5.29226124e-01 3.87383938e-01 0. 0. 0. 0.
      6.63885698e-02 5.29226124e-01 5.25156200e-01 2.10821182e-01
      3.99053395e-02 0. 0. 0. 3.48353922e-01 5.25156200e-01
      5.25156200e-01 0. 0. 0. 0. 0. 0. 6.11155689e-01 7.82804072e-01
      7.42740184e-02 4.60857064e-01 5.82077920e-01 5.82077920e-01 0. 0.
      0. 1.26473546e-01 1.52975425e-01 2.54503787e-01 4.39643383e-01
      4.39643383e-01 1.70812070e-01 0. 0. 0. 4.39643383e-01
      4.39643383e-01 4.39643383e-01 6.07127607e-01 0. 0. 0. 0. 0.
      3.57783914e-01 3.58776689e-01 6.07127607e-01 6.16836786e-01
      6.16836786e-01 3.26227963e-01 4.71779443e-02 3.38431627e-01
      3.67150940e-02 7.06278309e-02 5.60304523e-02 1.42753003e-02
      4.23537314e-01 2.90019661e-01 7.83435479e-02 1.64401470e-04
      4.23537314e-01 9.27394927e-02 4.23537314e-01 4.23537314e-01
      4.23537314e-01 5.70746958e-01 0. 0. 0. 5.70746958e-01
      1.16873920e-01 1.34372013e-02 5.66076301e-02 5.70746958e-01</_>
    <_>
      5.66531718e-01 5.66531718e-01 1.60166949e-01 0. 0. 0. 0.
      7.62544945e-02 5.66531718e-01 5.53034484e-01 1.98516890e-01
      1.35876676e-02 0. 0. 0. 1.93242162e-01 5.53034484e-01
      5.53034484e-01 0. 0. 0. 0. 0. 0. 4.58457917e-01 8.78932416e-01
      5.29106483e-02 4.95272815e-01 5.75388908e-01 5.58697879e-01 0. 0.
      0. 1.06073640e-01 1.62945658e-01 2.60654360e-01 4.43407267e-01
      4.43407267e-01 1.11896604e-01 0. 0. 0. 4.43407267e-01
      4.43407267e-01 4.43407267e-01 6.20355785e-01 0. 0. 0. 0. 0.
      2.93203056e-01 3.71692598e-01 6.20355785e-01 6.27699375e-01
      6.27699375e-01 2.85342515e-01 4.46651615e-02 3.37292075e-01
      3.33296396e-02 6.45030513e-02 5.67381121e-02 6.92165643e-03
      4.22429651e-01 3.00979763e-01 6.84887245e-02 1.64084282e-04
      4.22429651e-01 9.09191370e-02 4.22429651e-01 4.22429651e-01
      4.22429651e-01 5.71004212e-01 0. 0. 0. 5.71004212e-01
      1.11604974e-01 1.26386369e-02 5.95421381e-02 5.71004212e-01</_>
    <_>
      5.75094163e-01 5.75094163e-01 1.45037100e-02 0. 0. 0. 0.
      4.29790504e-02 5.75094163e-01 5.43215752e-01 1.26977235e-01
      6.87728287e-04 0. 0. 0. 3.05289090e-01 5.43215752e-01
      5.43215752e-01 1.08423181e-01 0. 0. 0. 0. 0. 7.04084218e-01
      6.49847388e-01 2.42125601e-01 6.53607309e-01 6.53607309e-01
      5.14356308e-02 0. 0. 1.38188094e-01 2.68609732e-01 8.56517330e-02
      1.94526806e-01 4.14460421e-01 4.14460421e-01 1.69790140e-03 0. 0.
      3.70093942e-01 4.14460421e-01 4.14460421e-01 4.14460421e-01
      5.54686248e-01 0. 0. 0. 0. 1.53265698e-02 5.54686248e-01
      2.66825199e-01 5.54686248e-01 4.70428079e-01 4.70428079e-01
      1.13715172e-01 3.25309159e-03 4.70428079e-01 3.41717362e-01
      3.98848444e-01 1.28080502e-01 1.61852613e-01 4.40551370e-01
      9.97165293e-02 2.31020749e-02 1.66701700e-03 4.40551370e-01
      3.95086467e-01 4.40551370e-01 2.29530320e-01 4.40551370e-01
      5.70560515e-01 0. 0. 9.03860317e-04 5.70560515e-01 1.31708100e-01
      1.78044587e-02 4.45471797e-03 5.70560515e-01</_>
    <_>
      5.68197310e-01 4.49527241e-02 3.05695403e-02 0. 0. 0.
      2.17285633e-01 5.46316147e-01 5.68197310e-01 4.07778889e-01
      4.96798098e-01 5.10900855e-01 1.36801749e-01 1.63658932e-01
      3.84123176e-02 4.70327102e-02 3.13896179e-01 4.16015059e-01
      3.44743848e-01 2.10183576e-01 2.18767822e-01 7.96748400e-02
      2.67281920e-01 1.91395685e-01 3.69165480e-01 5.16359985e-01
      5.16359985e-01 4.69128519e-01 3.12315881e-01 1.31297484e-01
      2.67726416e-03 1.41498027e-02 5.38092398e-04 4.69128519e-01
      4.69128519e-01 4.69128519e-01 6.94702327e-01 1.04197329e-02
      2.55016610e-02 1.62189081e-02 1.52387694e-01 3.62954848e-03
      3.05672027e-02 5.14864735e-02 6.94702327e-01 6.82411194e-01
      3.60684423e-03 7.43975211e-03 8.00698809e-03 2.44611308e-01
      3.31301056e-02 1.99007448e-02 1.88839678e-02 6.82411194e-01
      3.90767813e-01 1.34114578e-01 8.68084058e-02 4.91855480e-02
      5.34465790e-01 4.36749697e-01 8.35506096e-02 2.12092057e-01
      5.34465790e-01 5.59027731e-01 4.13279777e-04 4.50917811e-04
      1.21776350e-02 5.59027731e-01 2.38171473e-01 5.77383034e-04
      2.61501037e-03 5.59027731e-01 5.66363931e-01 0. 0. 5.22684306e-03
      5.66363931e-01 1.78920224e-01 1.75953362e-04 4.87516372e-04
      5.66363931e-01</_>
    <_>
      5.01927912e-01 4.57624346e-01 1.06657624e-01 0. 0. 0.
      1.35633066e-01 5.01927912e-01 5.01927912e-01 4.98753130e-01 0. 0.
      0. 0. 0. 4.98753130e-01 4.98753130e-01 4.98753130e-01
      7.04615593e-01 0. 0. 0. 0. 0. 0. 0. 7.04615593e-01 4.93845671e-01
      4.93845671e-01 5.96970059e-02 1.68495812e-02 1.11184753e-01 0.
      5.76523617e-02 4.93845671e-01 4.93845671e-01 6.83476746e-01 0. 0.
      1.37655693e-03 1.44078732e-01 1.31903903e-03 5.10643534e-02
      1.88484028e-01 6.83476746e-01 6.96272314e-01 0. 0. 2.95814127e-04
      1.53116867e-01 3.77469882e-03 0. 0. 6.96272314e-01 1.94952488e-01
      2.67164737e-01 1.26336560e-01 3.34587425e-01 7.64971375e-01
      3.44412290e-02 0. 4.57956195e-02 4.08175379e-01 4.85876560e-01
      2.94834637e-04 2.17034831e-03 5.00007682e-02 7.14819372e-01
      9.54538211e-02 0. 5.93634788e-03 4.83911365e-01 4.89617437e-01 0.
      0. 1.15858077e-03 7.16938913e-01 6.67375699e-02 0. 0.
      4.84419048e-01</_>
    <_>
      4.47714955e-01 4.47714955e-01 2.23506898e-01 0. 2.32425891e-02 0.
      3.78467292e-01 4.47714955e-01 4.47714955e-01 4.09663469e-02
      1.89083572e-02 5.67250662e-02 0. 1.98929846e-01 0. 5.99502802e-01
      7.12460756e-01 2.84706086e-01 0. 0. 0. 0. 6.95627868e-01 0.
      5.21720886e-01 1.73906967e-01 0. 5.15770197e-01 3.59626681e-01
      9.77502689e-02 1.81291252e-02 1.31791666e-01 1.04836821e-04
      2.09028691e-01 5.12380779e-01 5.15770197e-01 6.86270893e-01 0. 0.
      8.64312402e-04 2.07833365e-01 4.32576926e-04 4.43300679e-02
      7.78007060e-02 6.86270893e-01 6.86760128e-01 0. 0. 2.23258510e-04
      2.23266914e-01 4.15100344e-03 0. 0. 6.86760128e-01 5.75549364e-01
      3.72367203e-02 1.89702306e-02 1.81188077e-01 5.75549364e-01
      1.38715565e-01 3.90623161e-03 1.52175166e-02 5.26948154e-01
      5.72720468e-01 0. 0. 6.47145510e-02 5.72720468e-01 7.78708011e-02
      4.08340507e-04 1.67122425e-03 5.72720468e-01 5.68674743e-01 0. 0.
      4.62990962e-02 5.68674743e-01 1.48340046e-01 0. 0. 5.68674743e-01</_>
    <_>
      5.59568882e-01 0. 0. 0. 0. 0. 4.50604320e-01 4.06366080e-01
      5.59568882e-01 0. 0. 0. 0. 0. 0. 9.17853594e-01 3.05951208e-01 0.
      0. 0. 0. 0. 0. 0. 0. 0. 0. 5.63325584e-01 8.82581025e-02
      4.95411679e-02 1.15009770e-02 1.12197027e-01 0. 1.39295593e-01
      5.63325584e-01 5.63325584e-01 6.94132268e-01 0. 0. 1.44772779e-03
      1.71395376e-01 2.50395475e-04 4.93994588e-03 5.34670567e-03
      6.94132268e-01 6.89970076e-01 0. 0. 3.36597703e-04 2.02320740e-01
      7.80898798e-03 0. 0. 6.89970076e-01 4.88662124e-01 3.26450467e-02
      3.94870006e-02 1.16152495e-01 6.02570653e-01 6.13056421e-02
      1.71022490e-03 9.55627188e-02 6.02570653e-01 5.72701156e-01 0. 0.
      3.26238177e-03 5.72701156e-01 1.01541415e-01 0. 1.13917951e-04
      5.72701156e-01 5.70432663e-01 0. 0. 7.79518334e-04 5.70432663e-01
      1.34621471e-01 0. 0. 5.70432663e-01</_>
    <_>
      4.91536289e-01 4.91536289e-01 1.20159693e-01 0. 0. 0.
      1.19250581e-01 4.91536289e-01 4.91536289e-01 4.67812270e-01
      1.56887877e-03 0. 0. 0. 0. 5.08615613e-01 5.08615613e-01
      5.08615613e-01 4.22511429e-01 5.64504683e-01 5.64504683e-01 0. 0.
      0. 0. 0. 4.22511429e-01 4.09524918e-01 4.09524918e-01
      4.09524918e-01 0. 5.82958339e-04 5.96835837e-02 4.09524918e-01
      4.09524918e-01 3.92164737e-01 4.98498172e-01 2.06661434e-03
      5.86505688e-04 2.09575839e-04 2.15258114e-02 2.34827735e-02
      4.98498172e-01 4.98498172e-01 4.98498172e-01 6.99054778e-01
      6.54464737e-02 2.73461137e-02 5.77643077e-05 1.01513475e-01
      1.81840546e-02 0. 0. 6.99054778e-01 2.14456901e-01 4.31911916e-01
      4.31911916e-01 3.74676198e-01 4.31911916e-01 4.31911916e-01
      1.60898909e-01 9.81983617e-02 1.66098505e-01 5.05723238e-01
      2.95348418e-05 3.27753587e-05 8.43277723e-02 5.05723238e-01
      4.62816417e-01 5.50614409e-02 5.77860922e-02 5.05723238e-01
      5.47288895e-01 1.26592815e-03 1.03283534e-02 1.26390457e-01
      5.47288895e-01 4.39813852e-01 0. 0. 4.31236982e-01</_>
    <_>
      5.42842567e-01 5.42842567e-01 1.96861029e-01 0. 0. 0.
      5.71255498e-02 2.61776865e-01 5.42842567e-01 4.93957758e-01
      1.38072282e-01 5.03850682e-03 0. 0. 0. 4.93957758e-01
      4.93957758e-01 4.93957758e-01 3.85687917e-01 3.97691488e-01
      5.03159523e-01 0. 0. 0. 4.83929724e-01 2.23344967e-01
      3.85687917e-01 4.91074175e-01 4.91074175e-01 4.91074175e-01
      6.21766550e-04 1.46223465e-02 7.57417351e-04 3.68933171e-01
      2.81725973e-01 2.36511409e-01 4.91131037e-01 1.46599606e-01
      8.45588297e-02 3.61823197e-03 4.00059260e-02 8.33506405e-04
      4.91131037e-01 4.91131037e-01 4.91131037e-01 6.96814239e-01
      3.30975652e-02 1.14295548e-02 5.05253964e-04 1.34523958e-01
      2.56795175e-02 2.34712176e-02 3.75600532e-02 6.96814239e-01
      2.49909341e-01 4.55688298e-01 4.55688298e-01 3.97262394e-01
      4.55688298e-01 3.77607316e-01 7.34503642e-02 4.56655771e-02
      4.64029051e-02 5.17702818e-01 2.05035042e-02 2.01275684e-02
      8.84814784e-02 5.80689251e-01 2.36872897e-01 1.08209044e-01
      1.20119765e-01 5.45970738e-01 5.23279190e-01 8.96195823e-04
      3.00611928e-03 1.69938821e-02 5.23279190e-01 4.99682575e-01
      1.88323058e-04 1.36743730e-03 4.44014311e-01</_>
    <_>
      5.29028952e-01 5.29028952e-01 2.71135658e-01 0. 0. 0.
      8.82906169e-02 2.71647036e-01 5.29028952e-01 4.90498781e-01
      1.80676252e-01 1.00477524e-02 0. 0. 0. 4.90498781e-01
      4.90498781e-01 4.90498781e-01 5.31213284e-01 0. 0. 0. 0. 0.
      4.78916764e-01 4.48284000e-01 5.31213284e-01 3.63951117e-01
      5.54640293e-01 5.54640293e-01 7.63280876e-03 2.87923273e-02
      1.03836623e-03 3.64488602e-01 2.98061848e-01 1.55460477e-01
      4.82724190e-01 1.83691800e-01 7.15765506e-02 6.78715645e-04
      1.55562773e-01 4.68977122e-03 4.82724190e-01 4.82724190e-01
      4.82724190e-01 6.53302550e-01 0. 0. 0. 3.68858844e-01
      4.57030311e-02 2.65504383e-02 3.19168605e-02 6.53302550e-01
      1.03728451e-01 4.87833947e-01 4.86038446e-01 3.32034469e-01
      4.87833947e-01 3.97108257e-01 4.30706516e-02 3.75922173e-02
      3.09957415e-02 4.25966263e-01 1.94230061e-02 1.17680803e-02
      3.13916942e-03 6.21592164e-01 5.24379194e-01 5.56009486e-02
      9.47947502e-02 3.72012347e-01 5.49318314e-01 0. 0. 1.27671275e-03
      6.33453071e-01 4.24465835e-01 4.15788891e-05 7.59704504e-04
      3.32398385e-01</_>
    <_>
      4.89789307e-01 4.64518011e-01 1.02424294e-01 1.97424917e-04 0.
      7.86707923e-03 3.92258137e-01 3.67593497e-01 4.89789307e-01
      4.98730242e-01 0. 0. 0. 0. 9.56891105e-03 4.98730242e-01
      4.98730242e-01 4.98730242e-01 7.04615593e-01 0. 0. 0. 0. 0. 0. 0.
      7.04615593e-01 3.96822155e-01 3.96822155e-01 3.96822155e-01
      3.74533609e-02 1.20892785e-01 1.87645495e-01 3.96822155e-01
      3.96822155e-01 3.96822155e-01 5.29908061e-01 1.17809251e-02
      2.99986289e-03 4.65270365e-03 2.11742558e-02 7.92941600e-02
      5.29908061e-01 3.81306976e-01 5.29908061e-01 7.01043189e-01
      1.27655333e-02 1.44726532e-02 8.69677309e-03 3.94163057e-02
      8.98513719e-02 1.98375504e-03 0. 7.01043189e-01 2.83260882e-01
      4.39598858e-01 2.72658527e-01 1.17404372e-01 5.05292833e-01
      5.05292833e-01 1.37927964e-01 1.55115768e-01 2.82164246e-01
      5.49911857e-01 4.89581674e-02 3.12958541e-03 2.42897272e-02
      5.49911857e-01 5.49911857e-01 1.58261303e-02 1.78529713e-02
      2.89367527e-01 5.02212644e-01 1.73856579e-02 1.67610012e-02
      1.93584580e-02 6.06952488e-01 5.47434390e-01 1.61734596e-03 0.
      2.69603103e-01</_>
    <_>
      4.93668228e-01 4.93668228e-01 1.16837949e-01 0. 0. 9.48221236e-03
      3.89808923e-01 3.13452363e-01 4.93668228e-01 4.98688549e-01 0. 0.
      0. 0. 1.60681214e-02 4.98688549e-01 4.98688549e-01 4.98688549e-01
      7.04615593e-01 0. 0. 0. 0. 0. 0. 0. 7.04615593e-01 3.98315758e-01
      3.98315758e-01 3.98315758e-01 4.34579402e-02 1.51379570e-01
      2.01009914e-01 3.98315758e-01 3.70856196e-01 3.98315758e-01
      5.19984663e-01 1.67762563e-02 3.03223892e-03 8.31111241e-03
      3.67524996e-02 9.02574658e-02 5.19984663e-01 4.16890889e-01
      5.19984663e-01 6.99864388e-01 1.33833634e-02 1.49946082e-02
      1.24716936e-02 4.35390621e-02 1.04533091e-01 3.29550798e-03 0.
      6.99864388e-01 2.82615840e-01 4.62189287e-01 3.08270216e-01
      1.73733383e-01 4.62189287e-01 4.62189287e-01 1.48687139e-01
      1.58767685e-01 3.19571793e-01 5.44015765e-01 7.97935203e-02
      3.56275984e-03 2.52613593e-02 5.44015765e-01 5.44015765e-01
      2.21396387e-02 2.14819703e-02 3.14226657e-01 5.12063205e-01
      1.86542086e-02 1.76250599e-02 2.22791750e-02 5.84119260e-01
      5.71654975e-01 5.10568172e-03 0. 2.50584930e-01</_>
    <_>
      5.88627040e-01 5.88627040e-01 1.12575125e-02 0. 1.72093778e-03
      1.90995652e-02 4.09087576e-02 8.79780874e-02 5.39676487e-01
      4.95746285e-01 8.01630989e-02 0. 0. 1.28615962e-03 7.45888799e-02
      4.95746285e-01 4.95746285e-01 4.95746285e-01 5.76270759e-01
      5.76270759e-01 0. 0. 0. 5.93630644e-03 3.84362668e-01
      4.13777232e-01 1.05299927e-01 4.32847649e-01 4.32847649e-01
      4.32847649e-01 4.77121830e-06 6.15001656e-02 4.32847649e-01
      4.32847649e-01 2.08070144e-01 1.08698361e-01 4.40101951e-01
      4.00176585e-01 0. 0. 1.03851549e-01 4.40101951e-01 4.40101951e-01
      4.40101951e-01 2.23424152e-01 6.65586114e-01 6.65586114e-01
      8.04539584e-03 1.21394414e-02 1.06096946e-01 2.44807452e-01
      1.84173092e-01 4.37470898e-02 1.06183598e-02 1.06101774e-01
      1.55905113e-01 4.33946043e-01 4.33946043e-01 1.46056637e-01
      1.48672357e-01 4.04263020e-01 4.33946043e-01 4.33946043e-01
      4.51774746e-01 4.51774746e-01 7.96694134e-04 3.32581736e-02
      3.03227007e-01 4.51774746e-01 1.56185389e-01 2.48270601e-01
      4.51774746e-01 4.78041977e-01 4.78041977e-01 2.33991623e-01
      3.64864916e-02 1.58080623e-01 4.78041977e-01 4.78041977e-01
      1.45382492e-03 7.33813038e-03</_>
    <_>
      5.44501722e-01 5.44501722e-01 7.38590583e-02 9.01577179e-04
      2.61596501e-01 5.44501722e-01 8.72350112e-02 2.33735871e-02
      1.51891679e-01 4.18594420e-01 2.46661734e-02 1.18437340e-03
      4.81672207e-04 3.45111400e-01 4.18594420e-01 4.18594420e-01
      4.18594420e-01 4.18594420e-01 5.11614263e-01 5.11614263e-01
      5.10301515e-02 0. 8.66565295e-03 1.63607448e-01 5.11614263e-01
      4.22171324e-01 4.43600416e-02 2.46774070e-02 4.98810977e-01
      4.23627973e-01 7.77419045e-05 2.23983884e-01 4.98810977e-01
      4.98810977e-01 1.35434464e-01 0. 1.09402658e-02 4.38915312e-01
      5.40501662e-02 8.99293154e-05 5.15777349e-01 5.15777349e-01
      5.15777349e-01 3.28983031e-02 0. 2.32624486e-01 8.89250755e-01
      1.76994517e-01 0. 1.45169767e-02 2.36030787e-01 2.42804244e-01
      6.62721042e-03 0. 3.60009409e-02 1.33013129e-01 5.45301676e-01
      4.12487835e-02 1.01857504e-03 5.48342876e-02 5.45301676e-01
      5.45301676e-01 2.80704051e-01 6.09141350e-01 6.09141350e-01
      4.85073142e-02 0. 2.44210614e-03 1.63643043e-02 1.30913466e-01
      3.64876002e-01 3.14502835e-01 1.46946877e-01 5.67511737e-01
      8.08128044e-02 0. 0. 5.67511737e-01 5.67511737e-01 5.40556968e-04
      0.</_>
    <_>
      4.60199654e-01 4.60199654e-01 7.71017931e-03 0. 3.92091155e-01
      4.60199654e-01 9.97955874e-02 9.38906670e-02 4.32992756e-01
      2.62084454e-01 7.61365565e-03 7.62228807e-03 6.04803627e-03
      3.12211841e-01 4.55284327e-01 4.55284327e-01 4.55284327e-01
      4.55284327e-01 5.88558912e-01 5.88558912e-01 9.22572687e-02
      3.79150547e-02 2.04521984e-01 5.44813350e-02 4.25405681e-01
      2.54175872e-01 3.15936208e-02 6.38539046e-02 1.83426887e-01
      8.14879686e-02 0. 5.48560262e-01 5.48560262e-01 5.48560262e-01
      2.17487887e-01 1.01430835e-02 9.53642186e-03 4.96006161e-01
      7.05694407e-02 0. 4.96006161e-01 4.96006161e-01 4.96006161e-01
      7.67202079e-02 8.46355339e-04 3.28953356e-01 8.52857232e-01
      1.41147047e-01 0. 1.15221203e-03 2.80689985e-01 2.39095479e-01
      6.02288265e-03 0. 1.66450933e-01 2.44831126e-02 1.67539164e-01
      8.15490559e-02 2.30156723e-02 4.45559509e-02 5.56448042e-01
      5.56448042e-01 5.56448042e-01 6.43255651e-01 6.43255651e-01
      5.68645634e-02 0. 8.61684512e-03 1.94079932e-02 4.85146493e-02
      1.48521483e-01 3.71383160e-01 1.74827561e-01 5.64104795e-01
      9.56329107e-02 0. 0. 5.64104795e-01 5.64104795e-01 3.72143020e-03
      1.56342048e-05</_>
    <_>
      6.12624049e-01 6.12624049e-01 9.46764834e-03 0. 6.42023906e-02
      1.12554200e-01 1.03934193e-02 1.32840937e-02 4.75502074e-01
      4.55347776e-01 8.42250697e-03 0. 0. 8.58408883e-02 3.98303479e-01
      4.55347776e-01 4.55347776e-01 4.55347776e-01 4.78284597e-01
      4.78284597e-01 5.09709455e-02 0. 1.29073067e-03 8.27491432e-02
      4.78284597e-01 4.78284597e-01 2.65990794e-01 4.52042580e-01
      4.52042580e-01 2.35294238e-01 0. 3.46477002e-01 4.52042580e-01
      4.52042580e-01 3.71210240e-02 3.64273489e-02 1.37797803e-01
      1.19572692e-01 9.64825694e-03 0. 5.39743125e-01 5.39743125e-01
      5.39743125e-01 2.51224548e-01 1.55400351e-01 5.16130805e-01
      7.72609413e-01 1.04958408e-01 2.79900094e-04 1.03586223e-02
      2.30276644e-01 2.50287622e-01 4.65107039e-02 3.80011601e-03
      3.84790823e-02 1.44316301e-01 4.74141032e-01 1.07803807e-01
      1.94157921e-02 3.36078972e-01 4.74141032e-01 4.74141032e-01
      4.16628778e-01 5.26242316e-01 5.26242316e-01 1.54189132e-02 0.
      8.17357525e-02 1.95411772e-01 1.44516677e-01 3.12989473e-01
      5.26242316e-01 3.84726405e-01 5.30943155e-01 3.11216228e-02
      1.26764171e-05 1.00566435e-03 5.30943155e-01 5.30943155e-01
      2.84160138e-03 1.92583341e-03</_>
    <_>
      5.96827924e-01 5.96827924e-01 3.46367853e-03 0. 7.99537525e-02
      1.09270312e-01 9.42604337e-03 4.78710011e-02 5.10791957e-01
      4.67069298e-01 2.77964380e-02 0. 0. 2.04916343e-01 2.82765746e-01
      4.67069298e-01 4.67069298e-01 4.67069298e-01 4.44290251e-01
      4.44290251e-01 2.93298960e-02 6.73618168e-02 4.44290251e-01
      2.43387371e-02 4.44290251e-01 4.44290251e-01 5.10168150e-02
      4.42193836e-01 4.42193836e-01 1.45559534e-01 3.55909258e-04
      4.21646237e-01 4.42193836e-01 4.42193836e-01 1.06591374e-01
      5.57351373e-02 1.54322445e-01 1.43321872e-01 9.47534200e-03 0.
      4.89455760e-01 4.89455760e-01 4.89455760e-01 4.43191171e-01
      1.88536152e-01 6.72177255e-01 6.72177255e-01 2.84998138e-02
      1.13649340e-03 2.33000442e-02 1.90401316e-01 2.21637607e-01
      5.39505668e-02 1.45695393e-03 3.99139188e-02 9.26257521e-02
      4.30499047e-01 4.30499047e-01 4.27914485e-02 2.38848731e-01
      4.30499047e-01 4.30499047e-01 4.30499047e-01 5.10956228e-01
      5.10956228e-01 1.30435238e-02 5.12981461e-03 1.24198273e-01
      2.02303261e-01 1.38234854e-01 3.68796825e-01 5.10956228e-01
      4.92386371e-01 5.00800192e-01 1.11485114e-02 0. 3.14275618e-03
      5.00800192e-01 5.00800192e-01 6.37697813e-04 4.11525229e-03</_>
    <_>
      5.83955288e-01 5.83955288e-01 4.42633405e-03 0. 8.79884362e-02
      1.14853829e-01 1.25519866e-02 4.79424559e-02 5.37356913e-01
      4.74186152e-01 1.17434645e-02 1.33566651e-02 9.37010497e-02
      1.54578343e-01 2.50725120e-01 4.74186152e-01 4.74186152e-01
      4.74186152e-01 3.92486811e-01 3.92486811e-01 5.47046661e-02
      2.55202293e-01 3.92486811e-01 3.92486811e-01 3.92486811e-01
      3.92486811e-01 6.06859736e-02 4.36299324e-01 4.36299324e-01
      1.65288851e-01 0. 4.36299324e-01 4.36299324e-01 4.36299324e-01
      1.10226251e-01 6.62261918e-02 1.51379153e-01 2.06080422e-01
      7.74211111e-03 3.10967281e-03 4.77130085e-01 4.77130085e-01
      4.77130085e-01 4.50867265e-01 2.08660766e-01 6.65131211e-01
      6.65131211e-01 1.76109131e-02 3.34496633e-03 2.49679368e-02
      2.23426417e-01 2.34218001e-01 5.31769991e-02 3.30222258e-03
      6.38786033e-02 9.17746201e-02 4.36175644e-01 4.10773993e-01
      4.06291112e-02 2.27502272e-01 4.36175644e-01 4.36175644e-01
      4.36175644e-01 5.19832015e-01 5.19832015e-01 3.39609524e-03
      3.99017613e-03 1.26332462e-01 2.01603770e-01 1.24847449e-01
      3.34535867e-01 5.19832015e-01 4.76541311e-01 5.05756319e-01
      2.15877593e-02 0. 4.52976720e-03 5.05756319e-01 5.05756319e-01
      7.76834961e-04 1.36455102e-03</_>
    <_>
      6.62094176e-01 6.62094176e-01 7.09966337e-03 0. 7.19884830e-03
      2.04913169e-02 6.80006109e-03 1.61747914e-02 3.40327412e-01
      4.96110529e-01 2.54724994e-02 0. 0. 8.72425083e-03 9.90835428e-02
      4.96110529e-01 4.96110529e-01 4.96110529e-01 4.87079859e-01
      4.87079859e-01 0. 0. 0. 1.45877702e-02 4.87079859e-01
      4.87079859e-01 2.14325130e-01 4.29680318e-01 4.29680318e-01
      4.29680318e-01 0. 2.21903726e-01 4.29680318e-01 4.29680318e-01
      1.44421831e-01 4.98308837e-02 3.17883164e-01 2.08114788e-01
      7.33525269e-07 0. 4.79762793e-01 4.79762793e-01 4.79762793e-01
      3.71488452e-01 1.49419084e-01 6.56924307e-01 6.56924307e-01
      3.18252787e-05 0. 1.25943208e-02 1.28661841e-01 3.28437746e-01
      7.58342072e-02 2.78892787e-03 7.75501877e-02 1.54379845e-01
      4.23893690e-01 4.23893690e-01 4.24103886e-02 2.56301492e-01
      4.23893690e-01 4.23893690e-01 4.23893690e-01 4.92127150e-01
      4.92127150e-01 5.22400951e-04 1.09038847e-02 1.50726244e-01
      3.03749830e-01 1.82399616e-01 3.46621484e-01 4.92127150e-01
      4.98591661e-01 4.98591661e-01 5.97706763e-03 3.65839805e-03
      2.39645801e-02 4.98591661e-01 4.98591661e-01 1.32260844e-03
      4.54336358e-03</_>
    <_>
      4.43674475e-01 4.43674475e-01 4.60112803e-02 0. 1.33950962e-03
      9.59903076e-02 4.43674475e-01 4.43674475e-01 4.43674475e-01
      2.46128857e-01 0. 0. 0. 2.02841952e-01 6.55566603e-02
      5.44225156e-01 5.44225156e-01 5.44225156e-01 4.82663780e-01
      3.50102603e-01 4.10331562e-02 2.59541750e-01 1.28014386e-01
      2.87309378e-01 7.57264644e-02 4.82663780e-01 4.82663780e-01
      7.54396692e-02 4.73733574e-01 3.50616962e-01 8.57515261e-04
      2.83020176e-03 4.29095358e-01 4.73733574e-01 4.73733574e-01
      9.61401910e-02 4.78007883e-01 3.01820580e-02 1.70641653e-02 0.
      1.17700391e-01 2.53082901e-01 5.24047971e-01 5.24047971e-01
      3.71370196e-01 6.97261035e-01 6.97261035e-01 6.14796346e-03
      2.28438824e-02 3.03333178e-02 4.81613167e-02 5.99910226e-03
      1.68671552e-02 1.28739476e-01 9.71842185e-02 4.28059697e-02
      4.42975521e-01 4.42975521e-01 5.31618036e-02 1.83117203e-02
      4.42975521e-01 4.42975521e-01 4.42975521e-01 6.55515969e-01
      1.74625918e-01 7.09226448e-03 2.24369932e-02 1.78090990e-01
      1.06637210e-01 1.98915284e-02 2.43970990e-01 6.55515969e-01
      5.61728060e-01 5.61728060e-01 3.33906901e-05 0. 2.15176895e-01
      5.61728060e-01 1.53865647e-02 2.23696255e-03 3.51072177e-02</_>
    <_>
      6.08292520e-01 6.08292520e-01 0. 0. 6.43990294e-04 2.12992597e-02
      2.66469941e-02 9.49659199e-02 4.93663907e-01 4.68600243e-01
      3.52146506e-01 8.00880492e-02 3.88044566e-02 1.80091430e-02
      7.28219822e-02 4.46101606e-01 4.68600243e-01 4.68600243e-01
      4.29265887e-01 4.29265887e-01 1.35872573e-01 9.30089951e-02
      1.43359289e-01 1.63407668e-01 4.29265887e-01 4.29265887e-01
      4.29265887e-01 5.13674200e-01 5.13674200e-01 2.74815053e-01 0.
      8.15585554e-02 5.13674200e-01 3.24764699e-01 1.10527828e-01
      5.85036725e-02 3.72006625e-01 3.04075181e-01 7.10382015e-02
      1.08158961e-01 2.39053801e-01 4.64969307e-01 4.64969307e-01
      4.64969307e-01 2.04998329e-01 5.21946669e-01 5.21946669e-01
      1.03596374e-01 1.65762469e-01 3.57737124e-01 3.96216929e-01
      3.05851072e-01 1.43906444e-01 1.11820161e-01 1.28741011e-01
      2.66650021e-01 3.88582617e-01 3.88582617e-01 4.96258959e-02
      3.88582617e-01 3.88582617e-01 3.88582617e-01 3.88582617e-01
      4.82809603e-01 4.82809603e-01 1.28206762e-03 1.74912754e-02
      1.08057588e-01 4.82809603e-01 9.76872146e-02 2.03052714e-01
      4.82809603e-01 5.55160940e-01 5.55160940e-01 1.37139335e-02
      6.46741921e-03 1.67040732e-02 5.55160940e-01 2.63317376e-01 0.
      3.57039098e-04</_>
    <_>
      4.70360339e-01 4.70360339e-01 1.16355787e-03 0. 5.11729568e-02
      3.97580683e-01 2.17146143e-01 3.51770461e-01 4.70360339e-01
      2.99304098e-01 0. 0. 0. 2.86949687e-02 4.37644690e-01
      4.87575918e-01 4.87575918e-01 4.87575918e-01 6.97374046e-01
      6.97374046e-01 0. 0. 0. 0. 1.18919298e-01 3.96397710e-02
      6.82967603e-02 2.89272040e-01 3.18443596e-01 1.21339366e-01 0.
      3.38087320e-01 5.61673343e-01 5.61673343e-01 2.11696699e-01
      6.71636462e-02 1.52431458e-01 1.51258379e-01 0. 0. 4.00379747e-01
      5.53914130e-01 5.53914130e-01 4.09130454e-01 8.37891027e-02
      7.02815235e-01 7.02815235e-01 4.10293527e-02 0. 0. 5.66695295e-02
      1.30250780e-02 1.48241990e-03 4.33823839e-03 2.09419280e-01
      4.82025556e-02 2.51580149e-01 1.91983745e-01 3.12634259e-02
      2.27640927e-01 5.15017271e-01 5.15017271e-01 5.15017271e-01
      6.01491630e-01 6.01491630e-01 0. 0. 2.06528436e-02 8.62728953e-02
      3.66144115e-03 7.34919086e-02 5.07075667e-01 5.68666816e-01
      5.68666816e-01 1.47384440e-03 0. 8.66955705e-03 5.68666816e-01
      1.55202895e-01 0. 3.22686904e-03</_>
    <_>
      4.98510122e-01 4.98510122e-01 3.99785629e-03 6.75044442e-03
      4.08885889e-02 4.44237322e-01 2.90524781e-01 2.55192548e-01
      3.86507958e-01 4.38689858e-01 1.62789002e-01 5.01248874e-02
      4.94466275e-02 4.37734537e-02 4.38689858e-01 4.38689858e-01
      4.38689858e-01 4.38689858e-01 3.56128037e-01 3.56128037e-01
      3.56128037e-01 3.56128037e-01 3.56128037e-01 2.78479844e-01
      3.56128037e-01 1.76354066e-01 3.56128037e-01 4.81554359e-01
      4.81554359e-01 1.36033192e-01 1.85899017e-03 4.19068784e-02
      4.81554359e-01 4.81554359e-01 2.14668155e-01 3.55624668e-02
      3.28781486e-01 1.74206629e-01 1.20151602e-01 5.16580343e-02
      1.17077738e-01 5.97559333e-01 5.97559333e-01 2.66880155e-01
      1.98485762e-01 6.06087148e-01 6.06087148e-01 1.45547763e-01
      1.08238928e-01 1.97727725e-01 3.36251676e-01 2.17764482e-01
      3.44643928e-02 1.59982622e-01 6.62768185e-02 1.00087926e-01
      3.88714701e-01 4.49081570e-01 6.37219399e-02 1.38735369e-01
      4.49081570e-01 4.49081570e-01 4.49081570e-01 5.69552481e-01
      4.77122545e-01 2.26988215e-02 4.51909639e-02 1.15090229e-01
      1.60988048e-01 5.51344045e-02 2.70418912e-01 5.69552481e-01
      5.58813214e-01 5.58813214e-01 4.06857813e-03 4.31710528e-03
      2.02766955e-01 5.58813214e-01 1.22462481e-01 3.62063642e-03
      3.79929505e-02</_>
    <_>
      4.85328525e-01 4.85328525e-01 1.59786921e-02 1.31914541e-02
      1.83275715e-02 2.50774592e-01 2.34106451e-01 4.12386000e-01
      4.85328525e-01 4.44178730e-01 1.50368288e-01 1.87496826e-01
      1.18095376e-01 2.54830513e-02 3.66090864e-01 4.44178730e-01
      4.44178730e-01 4.44178730e-01 3.25680435e-01 3.33653748e-01
      3.33653748e-01 3.33653748e-01 3.33653748e-01 3.33653748e-01
      3.33653748e-01 3.33653748e-01 3.33653748e-01 4.76562321e-01
      4.76562321e-01 8.54831040e-02 7.33116991e-04 1.13425609e-02
      4.76562321e-01 4.76562321e-01 2.68308461e-01 8.58345255e-02
      1.94295555e-01 1.59812048e-01 1.09572224e-01 2.80588865e-02
      4.27242853e-02 5.51805794e-01 5.51805794e-01 5.31597257e-01
      1.58130601e-01 6.68124259e-01 6.68124259e-01 2.39256099e-02
      3.25371511e-02 8.44707713e-02 2.92163461e-01 6.91287369e-02
      1.27222072e-02 3.85141112e-02 5.65040745e-02 7.33519644e-02
      4.34754908e-01 4.22917962e-01 2.40212064e-02 2.27156639e-01
      4.34754908e-01 4.34754908e-01 4.34754908e-01 5.52438438e-01
      4.61986393e-01 2.79424228e-02 2.79804189e-02 1.11531243e-01
      1.98147118e-01 3.45905051e-02 3.40901166e-01 5.52438438e-01
      5.64941287e-01 5.64941287e-01 1.49801577e-04 4.24375496e-04
      1.90030947e-01 5.64941287e-01 1.62254646e-02 2.86533218e-03
      2.23449208e-02</_>
    <_>
      4.82665151e-01 4.82665151e-01 2.91282823e-03 0. 1.40214702e-02
      4.06314611e-01 2.29911864e-01 2.79510170e-01 4.82665151e-01
      4.16720927e-01 2.41613165e-02 0. 0. 3.14680040e-02 4.52837229e-01
      4.52837229e-01 4.52837229e-01 4.52837229e-01 6.99535549e-01
      6.99535549e-01 0. 0. 3.93400937e-02 0. 6.40214384e-02
      2.13404801e-02 9.06376317e-02 4.02231574e-01 4.28955227e-01
      2.38321736e-01 2.18661763e-02 4.79125120e-02 4.28955227e-01
      4.28955227e-01 4.28955227e-01 1.95815086e-01 4.33172941e-01
      2.74358511e-01 4.50886376e-02 6.13713376e-02 1.57077923e-01
      4.33172941e-01 4.33172941e-01 4.33172941e-01 3.73325914e-01
      6.36791885e-01 6.36791885e-01 3.09553067e-03 2.17160862e-02
      2.63979789e-02 4.25568134e-01 1.60516780e-02 1.69794029e-03
      9.35597159e-03 1.12288930e-01 3.27992886e-02 4.47906792e-01
      4.47906792e-01 3.00002009e-01 4.06500027e-02 2.96151638e-01
      4.47906792e-01 4.47906792e-01 4.75510806e-01 2.40614086e-01
      2.23570014e-03 4.64945361e-02 4.75261062e-01 4.75510806e-01
      2.00995393e-02 1.74871579e-01 4.75510806e-01 5.48117042e-01
      5.45160472e-01 6.92822505e-03 6.22581458e-03 3.09808075e-01
      5.48117042e-01 1.03396382e-02 3.06004798e-03 1.66709367e-02</_>
    <_>
      4.42617238e-01 4.42617238e-01 1.00877963e-01 0. 0. 7.64994621e-02
      4.42617238e-01 4.42617238e-01 4.42617238e-01 2.78001636e-01 0. 0.
      0. 0. 1.27644673e-01 5.48011363e-01 5.48011363e-01 5.48011363e-01
      4.38217908e-01 5.13564289e-01 1.07662551e-01 0. 0. 0.
      5.13564289e-01 5.13564289e-01 0. 1.25321642e-01 5.20408511e-01
      5.20408511e-01 0. 2.26154691e-03 2.33009383e-01 5.20408511e-01
      3.32376480e-01 4.30060215e-02 3.37129533e-01 2.00642094e-01
      2.23448426e-02 0. 1.55549673e-02 4.15785998e-01 6.64153755e-01
      4.65044200e-01 9.20348465e-02 6.95716441e-01 6.95716441e-01
      1.54092954e-02 0. 0. 1.27275676e-01 9.00682583e-02 1.87949967e-02
      1.04871346e-02 9.53750461e-02 1.82838768e-01 4.36402291e-01
      4.36402291e-01 2.91292705e-02 5.57430228e-03 4.36402291e-01
      4.36402291e-01 4.36402291e-01 5.25757313e-01 4.79420513e-01
      7.51086231e-03 2.27352381e-02 1.24083929e-01 1.33274555e-01
      1.99013397e-01 3.72458458e-01 5.25757313e-01 5.63250005e-01
      5.63250005e-01 1.48398092e-03 0. 2.54688486e-02 5.63250005e-01
      2.04702631e-01 2.65941286e-04 8.34209565e-03</_>
    <_>
      4.68564659e-01 4.68564659e-01 5.44629395e-02 0. 0. 3.91341746e-02
      3.35575461e-01 4.68564659e-01 4.68564659e-01 3.45234782e-01
      1.85182765e-02 0. 0. 0. 6.28601462e-02 5.38868308e-01
      5.38868308e-01 5.38868308e-01 7.01072574e-01 7.01072574e-01 0. 0.
      0. 0. 0. 0. 9.99815390e-02 1.98124737e-01 4.84594256e-01
      4.84594256e-01 2.85723014e-03 0. 2.76404828e-01 4.84594256e-01
      4.09934610e-01 8.34127441e-02 2.17060506e-01 1.71528906e-01 0. 0.
      0. 4.78345215e-01 5.83327174e-01 5.83327174e-01 9.10096392e-02
      6.84218466e-01 6.84218466e-01 0. 0. 0. 2.22751498e-01
      8.49653482e-02 2.78566102e-03 3.82626150e-03 6.84946775e-02
      1.09279029e-01 4.53353256e-01 4.53353256e-01 2.04167049e-02
      1.83605365e-02 4.53353256e-01 4.53353256e-01 3.94927293e-01
      4.70906317e-01 4.49405819e-01 3.05788801e-03 5.10600135e-02
      1.56734914e-01 1.69212282e-01 2.99226403e-01 4.52187985e-01
      4.70906317e-01 5.24850249e-01 5.24850249e-01 5.05837053e-03
      1.39407837e-03 8.82249475e-02 5.24850249e-01 4.00302082e-01
      9.93459579e-03 1.42655699e-02</_>
    <_>
      4.41534817e-01 4.41534817e-01 1.01974130e-01 0. 3.44294636e-03
      1.02049567e-01 4.41534817e-01 4.41534817e-01 4.41534817e-01
      7.16573186e-03 0. 0. 0. 0. 9.45879743e-02 6.60615861e-01
      6.60615861e-01 3.34035784e-01 7.03988552e-01 7.03988552e-01
      4.21045274e-02 0. 0. 0. 0. 0. 0. 2.73940694e-02 3.63848358e-01
      4.96300399e-01 0. 2.41308077e-03 3.26478034e-01 5.05369127e-01
      5.02468944e-01 3.21828648e-02 4.87586111e-01 4.87586111e-01
      4.55669276e-02 0. 5.59135601e-02 2.79063016e-01 4.87586111e-01
      4.10991311e-01 1.72964096e-01 6.74616158e-01 6.74616158e-01
      1.98039301e-02 0. 1.88762671e-03 2.74453521e-01 8.55932832e-02
      4.42171440e-04 2.10572779e-03 1.61479473e-01 9.11868066e-02
      4.37542051e-01 4.37542051e-01 6.28819093e-02 8.32366012e-03
      4.37542051e-01 4.37542051e-01 4.37542051e-01 5.41985631e-01
      5.41985631e-01 3.52173834e-03 1.41240312e-02 1.04905583e-01
      2.54248887e-01 6.11956157e-02 1.83678687e-01 5.41985631e-01
      5.33261120e-01 5.33261120e-01 1.24188466e-03 0. 1.20718367e-02
      5.33261120e-01 3.76060367e-01 4.33791400e-04 1.82383193e-03</_>
    <_>
      4.53435987e-01 4.53435987e-01 3.65295224e-02 0. 0. 1.15650587e-01
      3.97925347e-01 4.53435987e-01 4.53435987e-01 3.98538858e-01
      5.03066815e-02 0. 0. 0. 2.00791031e-01 5.14193177e-01
      5.14193177e-01 5.14193177e-01 4.59190428e-01 4.59190428e-01
      4.43782270e-01 0. 0. 0. 4.59190428e-01 4.07034457e-01
      1.50380600e-02 1.81088999e-01 4.68930155e-01 4.68930155e-01 0.
      3.09718685e-04 3.78008544e-01 4.68930155e-01 3.95583719e-01
      5.88180088e-02 4.03883278e-01 3.12445581e-01 7.77332559e-02
      1.93063635e-02 6.86657196e-03 4.84176874e-01 4.84176874e-01
      4.84176874e-01 1.57085776e-01 6.61176860e-01 6.61176860e-01
      7.37559563e-03 8.70924559e-04 9.10564850e-04 2.68663943e-01
      2.09930465e-01 4.46475632e-02 2.80875526e-02 5.89142255e-02
      1.25326619e-01 4.40184683e-01 4.40184683e-01 8.68365020e-02
      8.47922731e-03 4.40184683e-01 4.40184683e-01 4.40184683e-01
      4.60507542e-01 4.60507542e-01 9.83492378e-03 1.09995343e-01
      2.27732733e-01 3.06995720e-01 1.75916269e-01 4.12247181e-01
      4.60507542e-01 5.47072947e-01 5.47072947e-01 5.65852877e-03
      4.98509314e-03 1.03194207e-01 5.47072947e-01 2.93178767e-01
      2.13627145e-03 2.46153842e-03</_>
    <_>
      2.64067411e-01 0. 0. 0. 1.75288208e-02 6.98935390e-02
      5.53638697e-01 5.53638697e-01 5.53638697e-01 0. 0. 0. 0. 0. 0. 0.
      0. 0. 4.50027972e-01 8.82309437e-01 3.43527528e-03 0. 0. 0.
      8.56401026e-02 2.85467021e-02 4.51684333e-02 3.92518908e-01
      1.01555564e-01 1.51401050e-02 1.08979978e-02 2.04380363e-01
      4.44145173e-01 4.44145173e-01 4.44145173e-01 4.44145173e-01
      5.55779278e-01 3.98376882e-01 0. 0. 0. 0. 3.78369570e-01
      5.55779278e-01 2.73497850e-01 6.71638072e-01 6.71638072e-01
      3.09260620e-04 0. 1.87591463e-02 3.00664186e-01 1.39109753e-02 0.
      1.24535048e-02 4.27381516e-01 4.27381516e-01 2.86028683e-01
      7.64273480e-03 1.87614709e-02 1.52690019e-02 4.27381516e-01
      4.27381516e-01 4.27381516e-01 6.09688699e-01 6.09688699e-01 0. 0.
      0. 3.74137104e-01 2.92914212e-01 1.33721381e-01 8.25413913e-02
      5.51598310e-01 5.51598310e-01 0. 0. 1.39981341e-02 5.51598310e-01
      2.80970365e-01 1.11845881e-02 4.94373515e-02</_>
    <_>
      4.46894079e-01 4.45201904e-01 1.09759616e-02 0. 1.50231901e-03
      7.76984096e-02 4.38210666e-01 4.46894079e-01 4.46894079e-01
      3.36537987e-01 4.14314121e-02 5.79394307e-03 0. 0. 1.18812762e-01
      5.37125528e-01 5.37125528e-01 5.37125528e-01 6.84836984e-01
      6.84836984e-01 2.05972597e-01 6.49474002e-03 2.18990035e-02
      2.83387695e-02 2.90641282e-02 3.87470052e-02 9.52069834e-02
      2.52104849e-01 4.26030546e-01 3.14321548e-01 2.69047730e-02
      1.41886631e-02 4.26030546e-01 4.26030546e-01 4.26030546e-01
      3.26276153e-01 4.34288353e-01 2.75345773e-01 6.24252930e-02
      7.86288902e-02 3.87316979e-02 3.92226189e-01 4.34288353e-01
      4.34288353e-01 4.34288353e-01 6.93693519e-01 6.93693519e-01
      7.00000441e-03 4.04850580e-03 1.48251662e-02 1.28788143e-01
      8.95114318e-02 3.54827419e-02 6.71639740e-02 9.58464220e-02
      1.44204676e-01 4.18105185e-01 4.18105185e-01 1.36192173e-01
      2.70617515e-01 4.18105185e-01 4.18105185e-01 4.18105185e-01
      4.45904732e-01 4.45904732e-01 7.72031844e-02 2.30762199e-01
      2.37087145e-01 2.16376618e-01 1.94887251e-01 4.45904732e-01
      4.45904732e-01 5.62657535e-01 5.62657535e-01 4.14136238e-02
      1.37331439e-02 3.99196632e-02 5.62657535e-01 1.98733494e-01
      1.24431327e-02 3.85210253e-02</_>
    <_>
      4.58151489e-01 3.47288370e-01 1.43196303e-02 0. 1.41599181e-03
      1.87073067e-01 4.58151489e-01 4.58151489e-01 4.58151489e-01
      1.63200349e-01 0. 0. 0. 0. 2.15131655e-01 5.54241002e-01
      5.54241002e-01 5.54241002e-01 7.04615593e-01 7.04615593e-01 0. 0.
      0. 0. 0. 0. 0. 1.51683673e-01 2.39137679e-01 2.44312689e-01 0.
      5.84922079e-03 5.25407493e-01 5.25407493e-01 5.25407493e-01
      1.63328335e-01 4.34912443e-01 4.34912443e-01 0. 0. 0.
      4.34912443e-01 4.34912443e-01 4.34912443e-01 2.23408565e-01
      7.04409182e-01 7.04409182e-01 0. 0. 0. 1.98730007e-02
      5.81356417e-03 0. 1.24536557e-02 1.41100317e-01 7.35909939e-02
      3.42811942e-01 4.51761305e-01 1.64431468e-01 8.80631059e-02
      4.52311099e-01 4.52311099e-01 4.52311099e-01 5.50819516e-01
      5.50819516e-01 3.23110707e-02 1.10633470e-01 5.47236279e-02
      2.32740846e-02 2.58835778e-02 2.58462638e-01 5.50819516e-01
      5.67434967e-01 5.67434967e-01 1.60326883e-02 7.15183187e-03
      3.81447449e-02 5.67434967e-01 1.62385166e-01 0. 1.59454085e-02</_>
    <_>
      5.60343981e-01 5.60343981e-01 2.03944016e-02 0. 0. 1.11631688e-03
      5.65545820e-02 2.20981240e-01 5.60343981e-01 4.98450667e-01
      3.46518606e-02 0. 0. 0. 2.96614552e-03 4.98450667e-01
      4.98450667e-01 4.98450667e-01 5.64933300e-01 5.64933300e-01
      5.64933300e-01 2.42650900e-02 0. 0. 8.90522003e-02 7.15990141e-02
      1.52525857e-01 4.31710482e-01 4.31710482e-01 4.31710482e-01 0. 0.
      4.31710482e-01 4.31710482e-01 1.92750007e-01 1.63294941e-01
      4.07416642e-01 4.07416642e-01 1.61437420e-05 0. 0. 4.07416642e-01
      4.07416642e-01 4.07416642e-01 4.07416642e-01 4.05963331e-01
      4.05963331e-01 4.05963331e-01 4.05963331e-01 2.77944258e-03
      6.52919880e-06 8.42577890e-02 4.05963331e-01 4.05963331e-01
      2.49752626e-01 3.38530600e-01 4.02880043e-01 4.02880043e-01
      1.28223017e-01 2.01874942e-01 4.02880043e-01 3.68784159e-01
      3.72642726e-01 3.89031619e-01 3.89031619e-01 2.47447658e-02
      2.07091764e-01 3.73696119e-01 3.89031619e-01 2.77504921e-01
      3.61350268e-01 3.89031619e-01 4.77681071e-01 1.23275883e-01
      1.28505275e-01 4.77681071e-01 2.05034852e-01 8.21727514e-02
      4.48314808e-02 4.77681071e-01 4.77681071e-01</_>
    <_>
      6.61577642e-01 6.61577642e-01 1.45186381e-02 0. 5.21731116e-02
      1.08768791e-01 9.73419659e-03 2.34003477e-02 3.20342571e-01
      4.55852181e-01 1.16519943e-01 5.95851510e-04 0. 7.43048415e-02
      3.80976975e-01 4.55852181e-01 4.55852181e-01 4.55852181e-01
      4.62739795e-01 4.62739795e-01 4.62739795e-01 2.66931653e-01
      7.86927715e-02 2.87214648e-02 3.28057230e-01 3.07472110e-01
      2.69375205e-01 4.68572676e-01 4.68572676e-01 2.53658801e-01 0.
      2.15323299e-01 4.68572676e-01 4.68572676e-01 7.78811947e-02
      1.74945481e-02 4.08727139e-01 4.08727139e-01 1.88636616e-01
      3.11130285e-03 3.93440813e-01 4.08727139e-01 4.08727139e-01
      2.53494531e-01 2.70253360e-01 3.75967234e-01 3.75967234e-01
      3.75967234e-01 3.75967234e-01 3.03826537e-02 7.65589699e-02
      3.75967234e-01 3.75967234e-01 3.75967234e-01 1.32902965e-01
      2.65872747e-01 4.47343081e-01 3.02810520e-01 1.91925336e-02
      2.36487418e-01 4.47343081e-01 4.47343081e-01 3.98552060e-01
      4.52097952e-01 4.52097952e-01 4.52097952e-01 1.31747210e-02
      9.77887884e-02 1.40398949e-01 2.96941489e-01 3.76192927e-01
      3.50946099e-01 2.25851476e-01 4.34938610e-01 1.72720104e-01
      4.07705866e-02 4.32126597e-02 2.99658608e-02 4.90123987e-01
      4.90123987e-01 4.90123987e-01</_>
    <_>
      5.61802566e-01 5.61802566e-01 5.86649738e-02 0. 9.34826434e-02
      5.48522711e-01 9.91362706e-02 7.91783854e-02 1.84365407e-01
      4.41282988e-01 6.45101145e-02 1.52759172e-03 9.75971296e-03
      1.32964194e-01 4.41282988e-01 4.41282988e-01 4.41282988e-01
      4.41282988e-01 2.16359720e-01 4.67349261e-01 4.67349261e-01
      4.67349261e-01 1.21924445e-01 8.07147250e-02 4.41093981e-01
      2.51083910e-01 1.19528323e-01 6.24673963e-02 5.17893195e-01
      3.88706774e-01 0. 1.22638613e-01 5.17893195e-01 5.17893195e-01
      1.41940609e-01 2.31194240e-03 4.08197612e-01 4.08197612e-01
      4.08197612e-01 0. 2.89626747e-01 4.08197612e-01 4.08197612e-01
      1.25902668e-01 2.51118720e-01 4.20241654e-01 4.20241654e-01
      2.97331810e-01 1.53820604e-01 1.34684434e-02 2.32048947e-02
      4.20241654e-01 4.20241654e-01 4.20241654e-01 9.83638093e-02
      1.41176298e-01 5.40411472e-01 6.59633726e-02 4.07915050e-03
      5.34696281e-02 5.40411472e-01 5.40411472e-01 2.85721064e-01
      5.03699780e-01 5.03699780e-01 5.03699780e-01 1.94106670e-03
      8.62443075e-03 1.70836952e-02 2.72762507e-01 3.27938348e-01
      2.26971447e-01 8.59398544e-02 4.90447938e-01 3.90756667e-01
      3.69529403e-03 1.05671510e-02 1.69423420e-03 5.28268754e-01
      5.28268754e-01 1.89327419e-01</_>
    <_>
      5.77340603e-01 5.77340603e-01 2.57759402e-03 0. 4.85133454e-02
      6.55736029e-02 2.65640579e-02 6.84262216e-02 5.61731875e-01
      4.84663010e-01 3.52868065e-02 0. 0. 3.74487266e-02 2.30040774e-01
      4.84663010e-01 4.84663010e-01 4.84663010e-01 4.99963433e-01
      4.99963433e-01 4.99963433e-01 3.35228801e-01 9.63707734e-03
      1.06036682e-02 2.17545137e-01 2.05733076e-01 2.07076758e-01
      4.35360402e-01 4.35360402e-01 1.84883118e-01 0. 4.35360402e-01
      4.35360402e-01 4.35360402e-01 9.36942548e-02 7.06925541e-02
      3.85165900e-01 3.85165900e-01 1.53329641e-01 0. 3.85165900e-01
      3.85165900e-01 3.85165900e-01 3.61658901e-01 3.16355675e-01
      3.75891179e-01 3.75891179e-01 3.75891179e-01 3.75891179e-01
      7.77279139e-02 3.38198356e-02 3.75891179e-01 3.75891179e-01
      3.75891179e-01 1.77894413e-01 1.48162544e-01 4.30231005e-01
      3.70081991e-01 6.37640655e-02 2.46337876e-01 4.30231005e-01
      4.30231005e-01 4.30231005e-01 4.62685406e-01 4.62685406e-01
      4.62685406e-01 1.61939207e-02 1.77482516e-01 1.92690298e-01
      1.39376968e-01 2.25276783e-01 4.62685406e-01 2.51405537e-01
      4.60527241e-01 2.29269058e-01 1.01764090e-01 1.40682355e-01
      3.37945931e-02 4.60527241e-01 4.60527241e-01 4.60527241e-01</_>
    <_>
      1.22519121e-01 4.36584689e-02 1.09197479e-02 3.30603309e-02
      5.44532955e-01 5.44532955e-01 5.44532955e-01 2.91631579e-01
      4.28420603e-02 4.42256004e-01 7.20897838e-02 8.84927735e-02
      2.02697575e-01 7.97066808e-01 0. 7.34149758e-03 2.75881272e-02
      3.25899005e-01 3.09947550e-01 8.53560120e-02 1.62375700e-02
      6.37060031e-02 8.39248359e-01 1.47197366e-01 9.75467414e-02
      5.58502860e-02 3.81196022e-01 4.73184913e-01 4.73184913e-01
      3.48174036e-01 0. 1.29803270e-02 9.79530141e-02 4.73184913e-01
      4.26330864e-01 1.03997461e-01 4.10501927e-01 4.10501927e-01
      6.15769438e-02 2.69518029e-02 5.78726158e-02 3.81408662e-01
      4.10501927e-01 4.10501927e-01 4.10501927e-01 4.22179371e-01
      4.22179371e-01 4.22179371e-01 3.06469023e-01 4.98655699e-02
      1.11904033e-02 8.98357928e-02 4.22179371e-01 4.22179371e-01
      6.63193762e-02 4.51316804e-01 4.51316804e-01 4.51316804e-01
      6.95302114e-02 9.57494602e-02 4.51316804e-01 3.97031337e-01
      6.86303899e-02 3.32778692e-01 3.32778692e-01 3.32778692e-01
      3.32778692e-01 3.32778692e-01 3.32778692e-01 3.32778692e-01
      3.32778692e-01 3.32778692e-01 3.71797800e-01 3.71797800e-01
      2.58509934e-01 3.71797800e-01 3.71797800e-01 2.98932254e-01
      1.03421524e-01 3.71797800e-01 3.71797800e-01</_>
    <_>
      3.62105131e-01 2.85204481e-02 2.19763941e-04 3.11414711e-02
      4.39731926e-01 4.39731926e-01 4.39731926e-01 3.53580028e-01
      3.96979511e-01 5.73511124e-01 3.30337696e-02 3.73068918e-03
      8.01332518e-02 5.73511124e-01 0. 7.16037699e-04 1.05299032e-03
      5.73511124e-01 5.73418438e-01 1.39540238e-02 3.83713306e-03
      8.17209408e-02 5.73418438e-01 2.57197153e-02 6.36503194e-03
      1.60633083e-02 5.73418438e-01 4.27165508e-01 4.27165508e-01
      4.27165508e-01 5.36375074e-03 1.89716294e-02 2.39217654e-01
      4.27165508e-01 3.95162195e-01 2.28220478e-01 4.24500942e-01
      4.24500942e-01 1.14433892e-01 2.02187784e-02 7.10342005e-02
      4.24500942e-01 3.79960686e-01 3.34716916e-01 4.24500942e-01
      4.15754527e-01 4.15754527e-01 4.15754527e-01 4.15754527e-01
      6.52239099e-02 1.11293986e-01 1.16624638e-01 3.18348825e-01
      4.15754527e-01 1.26905322e-01 4.17380184e-01 4.17380184e-01
      4.17380184e-01 2.52582520e-01 1.47087783e-01 4.17380184e-01
      4.17380184e-01 1.52517900e-01 3.53904665e-01 3.53904665e-01
      2.79014975e-01 3.53904665e-01 3.53904665e-01 3.53904665e-01
      2.04634532e-01 3.53904665e-01 3.53904665e-01 3.70973885e-01
      3.70973885e-01 1.51291385e-01 3.70973885e-01 3.70973885e-01
      3.70973885e-01 1.00265332e-01 3.70973885e-01 3.70973885e-01</_>
    <_>
      4.43922997e-01 4.38294590e-01 1.12715416e-01 1.36034423e-02
      4.38617691e-02 1.94744878e-02 4.43922997e-01 4.43922997e-01
      4.43922997e-01 5.01164377e-01 4.71604109e-01 1.47224993e-01
      6.63552294e-03 1.21154845e-01 3.60725587e-03 4.04262334e-01
      2.65356511e-01 5.01164377e-01 4.81287301e-01 5.78589849e-02
      3.09793605e-03 0. 1.37508914e-01 2.15353370e-01 4.81287301e-01
      4.81287301e-01 4.81287301e-01 1.57144651e-01 4.34649050e-01
      2.07869127e-01 3.46022472e-03 5.16641536e-04 1.19014964e-01
      5.78424573e-01 5.78424573e-01 2.32537240e-01 4.48089659e-01
      4.48089659e-01 4.48089659e-01 3.91204888e-03 5.57996519e-03
      3.02995462e-03 3.03500056e-01 4.09008145e-01 3.65671724e-01
      3.92461956e-01 3.63431185e-01 1.80796131e-01 2.18149088e-03
      3.16959098e-02 6.60505705e-03 4.74486321e-01 4.74486321e-01
      4.74486321e-01 4.21317637e-01 1.71343729e-01 3.44853312e-01
      3.55274349e-01 1.01683177e-01 3.02538816e-02 4.21317637e-01
      4.21317637e-01 4.21317637e-01 4.46899742e-01 4.46899742e-01
      3.44529510e-01 1.31252661e-01 3.00464153e-01 4.46899742e-01
      2.17927217e-01 2.52820551e-01 2.42406145e-01 1.57018811e-01
      1.75714076e-01 2.19806880e-01 3.23173583e-01 1.75529361e-01
      7.21917748e-02 4.88908589e-01 5.05770862e-01 5.05770862e-01</_>
    <_>
      4.45454359e-01 4.45454359e-01 4.58551869e-02 1.36205542e-03
      3.61697655e-03 3.58459577e-02 4.45454359e-01 4.45454359e-01
      4.45454359e-01 5.35312593e-01 4.33180004e-01 2.04848140e-01
      1.28506934e-02 0. 5.12845768e-03 2.82984436e-01 3.34149033e-01
      5.35312593e-01 5.60267389e-01 5.23331203e-02 2.69200094e-02 0. 0.
      0. 2.21907735e-01 5.60267389e-01 5.60267389e-01 1.81240216e-01
      4.62632209e-01 3.08770806e-01 2.82738800e-03 7.25640683e-03
      2.54892021e-01 5.23889005e-01 5.23889005e-01 1.96473971e-01
      4.50597256e-01 4.50597256e-01 4.50597256e-01 8.53017904e-03
      1.59401726e-03 9.18425061e-03 3.30003798e-01 3.79241675e-01
      3.65375429e-01 4.05870140e-01 3.86171460e-01 2.28239253e-01 0. 0.
      1.65067557e-02 4.57966805e-01 4.57966805e-01 4.57966805e-01
      4.08690214e-01 1.42333224e-01 4.08690214e-01 3.60577196e-01
      9.64721218e-02 3.46017964e-02 4.08690214e-01 4.08690214e-01
      4.08690214e-01 4.48829561e-01 4.48829561e-01 3.66952866e-01
      1.40360475e-01 2.59342313e-01 4.48829561e-01 1.71992525e-01
      2.27358952e-01 2.97128588e-01 1.31517857e-01 2.04976663e-01
      1.89720824e-01 4.05101448e-01 1.36411577e-01 1.08302623e-01
      4.55320626e-01 4.98973280e-01 4.98973280e-01</_>
    <_>
      5.67816138e-01 5.67816138e-01 1.27936844e-02 0. 0. 0.
      3.69602181e-02 1.59858644e-01 5.67816138e-01 4.96802628e-01
      8.82425234e-02 0. 0. 0. 0. 4.96802628e-01 4.96802628e-01
      4.96802628e-01 5.65859199e-01 5.65859199e-01 5.65859199e-01 0. 0.
      0. 1.16523609e-01 1.25386804e-01 6.67842031e-02 4.67735499e-01
      4.67735499e-01 3.99128079e-01 0. 0. 3.81824136e-01 4.67735499e-01
      1.21515982e-01 1.38346210e-01 4.07412678e-01 4.07412678e-01
      1.03822574e-02 0. 0. 4.07412678e-01 4.07412678e-01 4.07412678e-01
      4.07304168e-01 3.93986374e-01 3.93986374e-01 3.93986374e-01
      3.93986374e-01 0. 6.52339635e-03 2.54302800e-01 3.93986374e-01
      3.93986374e-01 1.23338066e-01 4.08244044e-01 4.08244044e-01
      4.08244044e-01 2.86793336e-02 2.24353164e-01 4.08244044e-01
      4.08244044e-01 3.10220182e-01 4.15656954e-01 4.15656954e-01
      6.49091303e-02 2.89105866e-02 1.41606376e-01 3.27409804e-01
      4.15656954e-01 4.15290684e-01 4.15656954e-01 4.52873707e-01
      3.68785530e-01 8.35568085e-02 1.64982468e-01 6.98744878e-02
      3.44788656e-03 4.52873707e-01 4.52873707e-01 4.52873707e-01</_>
    <_>
      4.51601267e-01 4.51601267e-01 1.67286098e-01 0. 0. 2.34192405e-02
      3.88820112e-01 4.51601267e-01 4.51601267e-01 4.62304890e-01
      3.69300634e-01 4.91992459e-02 0. 0. 4.09341604e-02 4.62304890e-01
      4.62304890e-01 4.62304890e-01 5.63621700e-01 1.94577485e-01
      4.48174477e-02 0. 0. 0. 3.86595950e-02 5.63621700e-01
      5.63621700e-01 5.86154126e-02 4.94843632e-01 4.06082988e-01
      3.07348731e-04 9.17751575e-04 2.87032932e-01 4.94843632e-01
      4.94843632e-01 9.85852852e-02 4.67142165e-01 4.67142165e-01
      4.67142165e-01 3.13809956e-04 0. 1.49788663e-01 4.67142165e-01
      2.86730677e-01 1.33400485e-01 4.30474579e-01 4.30474579e-01
      2.62978792e-01 5.32189675e-04 0. 0. 4.30474579e-01 4.30474579e-01
      4.30474579e-01 2.08562016e-01 1.16604671e-01 4.67903227e-01
      2.47989297e-01 1.96404234e-02 2.47685630e-02 4.67903227e-01
      4.67903227e-01 4.67903227e-01 4.20637757e-01 4.20637757e-01
      4.20637757e-01 3.51049043e-02 8.82022902e-02 1.53809935e-01
      2.80085683e-01 4.20637757e-01 4.20637757e-01 1.00975677e-01
      3.54675502e-01 3.94461006e-01 2.66790360e-01 2.18906596e-01
      1.52210236e-01 4.32751566e-01 4.32751566e-01 4.32751566e-01</_>
    <_>
      4.43473786e-01 4.43473786e-01 1.08885773e-01 1.27843086e-04
      9.47135326e-04 1.91879813e-02 4.43473786e-01 4.43473786e-01
      4.43473786e-01 4.45522070e-01 4.45522070e-01 4.60017584e-02 0.
      1.90606602e-02 2.49137841e-02 4.45522070e-01 4.45522070e-01
      4.45522070e-01 5.19477546e-01 4.11900938e-01 1.09630816e-01
      3.02507766e-02 3.60576110e-03 0. 5.13000526e-02 5.19477546e-01
      5.19477546e-01 6.27824217e-02 4.94039923e-01 4.58878547e-01
      2.22261195e-04 1.33765535e-03 2.02607989e-01 4.94039923e-01
      4.94039923e-01 8.53027552e-02 4.36350048e-01 4.78385419e-01
      4.78385419e-01 6.59380341e-04 4.11089184e-03 9.80793759e-02
      4.78385419e-01 3.10478628e-01 1.10583834e-01 4.06128377e-01
      4.06128377e-01 4.06128377e-01 7.47498348e-02 2.54421625e-02
      8.14624038e-03 4.06128377e-01 4.06128377e-01 4.06128377e-01
      1.76678047e-01 1.34251744e-01 4.74101156e-01 2.15678945e-01
      1.15778595e-02 1.69325434e-02 4.74101156e-01 4.74101156e-01
      4.74101156e-01 4.09430325e-01 4.09430325e-01 4.09430325e-01
      4.44021523e-02 7.94001967e-02 2.25133702e-01 3.14297408e-01
      4.09430325e-01 4.09430325e-01 8.16060081e-02 3.08142364e-01
      3.96435708e-01 3.39103639e-01 2.62609035e-01 2.86056936e-01
      3.96435708e-01 3.96435708e-01 3.96435708e-01</_>
    <_>
      4.64449257e-01 4.64449257e-01 1.42643645e-01 1.95135087e-01
      4.64449257e-01 2.86599159e-01 2.68856406e-01 8.70404765e-02
      3.57488185e-01 4.75245535e-01 2.05440938e-01 7.45258108e-02
      1.98276207e-01 4.75245535e-01 4.61477153e-02 5.11550978e-02
      4.75245535e-01 4.75245535e-01 3.99905086e-01 1.82462305e-01
      1.54818833e-01 4.57254767e-01 6.97501361e-01 9.89029650e-04
      2.51275133e-02 1.14606805e-01 2.57865220e-01 5.45157135e-01
      5.67273080e-01 5.67273080e-01 5.02808311e-04 1.02957049e-02
      5.24339173e-03 1.14133000e-01 1.18658260e-01 1.62178457e-01
      4.32489216e-01 4.32489216e-01 2.45855555e-01 4.16219147e-04 0. 0.
      4.32489216e-01 4.32489216e-01 4.32489216e-01 4.40388292e-01
      4.40388292e-01 1.96167678e-01 3.38013587e-03 1.64911617e-04
      2.36318749e-03 4.25834149e-01 4.40388292e-01 4.40388292e-01
      5.11334278e-03 5.71037233e-01 5.71037233e-01 5.71037233e-01
      1.61384884e-02 0. 1.08915158e-01 6.24300204e-02 7.83468189e-04
      3.65157574e-01 3.65157574e-01 3.65157574e-01 3.65157574e-01
      2.18068093e-01 2.01418996e-01 3.65157574e-01 3.65157574e-01
      3.28919381e-01 3.38192672e-01 3.38192672e-01 3.38192672e-01
      3.38192672e-01 3.09775800e-01 3.16291124e-01 3.38192672e-01
      3.38192672e-01 3.38192672e-01</_>
    <_>
      4.09697920e-01 4.09697920e-01 0. 0. 1.17150687e-01 4.09697920e-01
      4.09697920e-01 3.78048927e-01 4.09697920e-01 4.97986048e-01
      5.53722382e-02 0. 0. 0. 0. 4.97986048e-01 4.97986048e-01
      4.97986048e-01 5.61683357e-01 5.61683357e-01 5.61683357e-01
      1.08051062e-01 0. 0. 4.71468233e-02 8.33413824e-02 1.64569035e-01
      4.71714556e-01 4.71714556e-01 5.12804389e-02 0. 3.72084640e-02
      4.71714556e-01 4.71714556e-01 2.56364435e-01 1.88396424e-01
      4.04178709e-01 4.04178709e-01 1.24902807e-01 0. 1.41079249e-02
      4.04178709e-01 4.04178709e-01 4.04178709e-01 4.04178709e-01
      3.95536900e-01 3.95536900e-01 3.95536900e-01 2.97457248e-01
      5.00389151e-02 0. 3.50452006e-01 3.95536900e-01 3.95536900e-01
      2.09951818e-01 3.68568420e-01 3.68568420e-01 3.68568420e-01
      3.65961008e-02 3.68568420e-01 3.68568420e-01 3.68568420e-01
      3.68568420e-01 4.55060393e-01 4.55060393e-01 1.25763819e-01
      7.31053948e-02 1.91013083e-01 4.55060393e-01 1.43091679e-01
      2.99180925e-01 4.54514295e-01 4.31783438e-01 4.24495667e-01
      4.61457632e-02 2.81292856e-01 2.21964329e-01 6.74069598e-02
      3.48012298e-01 4.31783438e-01 4.31783438e-01</_>
    <_>
      5.92071533e-01 5.92071533e-01 9.33578238e-03 0. 0. 1.97670050e-02
      3.44021060e-02 8.98356363e-02 5.32220781e-01 4.97361958e-01
      8.96758307e-03 0. 0. 0. 7.40036219e-02 4.97361958e-01
      4.97361958e-01 4.97361958e-01 5.48029602e-01 5.48029602e-01
      5.48029602e-01 5.61733134e-02 0. 0. 2.34094292e-01 1.71498939e-01
      7.84239992e-02 4.64124173e-01 4.64124173e-01 3.04871619e-01 0.
      9.20625404e-02 4.64124173e-01 4.64124173e-01 1.54383659e-01
      9.19923186e-02 4.22388941e-01 4.22388941e-01 3.72429006e-02 0.
      9.64549258e-02 4.22388941e-01 4.22388941e-01 4.22388941e-01
      3.05004805e-01 3.94195050e-01 3.94195050e-01 3.94195050e-01
      3.94195050e-01 1.36977825e-02 1.58150364e-02 2.51566648e-01
      3.94195050e-01 3.94195050e-01 2.09488079e-01 2.61889368e-01
      4.04139102e-01 2.88551062e-01 3.51074450e-02 3.81685376e-01
      4.04139102e-01 4.04139102e-01 4.04139102e-01 4.80539143e-01
      4.80539143e-01 8.10658932e-02 1.92164369e-02 1.22434057e-01
      3.88371170e-01 1.50826767e-01 3.27008724e-01 4.80539143e-01
      4.51575816e-01 4.23819333e-01 4.14032154e-02 1.26968220e-01
      9.73521993e-02 2.73921322e-02 3.12955171e-01 4.92712647e-01
      4.92712647e-01</_>
    <_>
      5.08307159e-01 5.08307159e-01 0. 0. 7.25469040e-03 1.95292845e-01
      2.51435310e-01 3.44069034e-01 5.08307159e-01 4.84273016e-01 0. 0.
      0. 1.58232672e-03 2.38912597e-01 4.84273016e-01 4.84273016e-01
      4.84273016e-01 4.10587937e-01 6.19380593e-01 6.19380593e-01
      2.40766808e-01 0. 0. 0. 0. 0. 4.86697644e-01 4.86697644e-01
      5.85742220e-02 0. 6.24112524e-02 4.86697644e-01 4.86697644e-01
      1.52755708e-01 1.30308047e-01 3.96836758e-01 3.96836758e-01
      2.24752620e-01 0. 2.54051443e-02 3.96836758e-01 3.96836758e-01
      3.96836758e-01 3.96836758e-01 4.05287266e-01 4.05287266e-01
      3.76176894e-01 1.81917191e-01 7.71186734e-03 0. 4.05287266e-01
      4.05287266e-01 4.05287266e-01 3.66440117e-01 1.56659767e-01
      2.69945502e-01 1.84120163e-01 2.21765377e-02 4.27097857e-01
      4.27097857e-01 4.27097857e-01 4.27097857e-01 5.36054730e-01
      5.36054730e-01 4.10250306e-01 4.15832102e-02 1.17118694e-01
      1.41696379e-01 1.65789306e-01 3.13202947e-01 3.00875694e-01
      1.93093285e-01 3.29104096e-01 1.19618483e-01 7.46499598e-02
      6.43525198e-02 1.71847921e-02 5.24357080e-01 5.24357080e-01
      5.24357080e-01</_>
    <_>
      4.82965142e-01 4.82965142e-01 1.85345903e-01 1.00621730e-01
      6.05678149e-02 1.67173415e-01 3.12742859e-01 3.48581195e-01
      4.82965142e-01 4.45318282e-01 2.38249630e-01 2.18119100e-01
      8.78087059e-02 1.37462661e-01 2.67157465e-01 4.45318282e-01
      4.45318282e-01 4.45318282e-01 3.68194729e-01 3.68194729e-01
      3.68194729e-01 2.48285785e-01 3.24093282e-01 1.96270987e-01
      3.68194729e-01 3.36571246e-01 3.68194729e-01 4.63666260e-01
      4.63666260e-01 2.72586010e-02 2.13185069e-03 3.87231191e-03
      4.63666260e-01 4.63666260e-01 2.67161965e-01 2.51565188e-01
      4.16391462e-01 4.16391462e-01 5.09638004e-02 5.68391196e-02
      6.40479401e-02 4.16391462e-01 4.16391462e-01 3.90795708e-01
      3.73713374e-01 4.45265591e-01 3.34756941e-01 1.37037620e-01
      1.70228168e-01 3.09979081e-01 1.25183299e-01 3.59431446e-01
      4.45265591e-01 4.45265591e-01 3.82565677e-01 1.30295023e-01
      2.46214077e-01 3.82565677e-01 2.01099262e-01 3.82565677e-01
      3.82565677e-01 3.82565677e-01 3.82565677e-01 4.40267414e-01
      4.40267414e-01 4.14762413e-03 1.38435721e-01 4.40267414e-01
      4.40267414e-01 2.20136791e-02 8.22130591e-02 4.40267414e-01
      4.53238636e-01 2.62676716e-01 2.09346581e-02 4.53238636e-01
      2.64827847e-01 3.78793254e-02 1.81012914e-01 4.53238636e-01
      4.53238636e-01</_>
    <_>
      5.27611732e-01 5.27611732e-01 7.21974671e-03 0. 0. 1.28088325e-01
      1.84391975e-01 3.30377519e-01 5.27611732e-01 4.73397255e-01
      9.08016786e-02 1.77513897e-01 1.04916371e-01 5.68236671e-02
      2.11800218e-01 4.73397255e-01 4.73397255e-01 4.73397255e-01
      2.62529552e-01 3.55197132e-01 4.22152847e-01 4.22152847e-01
      4.93841618e-02 4.22152847e-01 4.22152847e-01 1.88321829e-01
      2.23472551e-01 4.30879205e-01 4.30879205e-01 8.96304995e-02
      3.00354720e-03 1.21622188e-02 4.30879205e-01 4.30879205e-01
      4.10934329e-01 2.75700241e-01 4.05419111e-01 4.05419111e-01
      9.55366939e-02 1.91250890e-02 1.63975917e-02 4.05419111e-01
      4.05419111e-01 4.05419111e-01 4.05419111e-01 4.83109385e-01
      4.73889053e-01 3.82227264e-02 4.71316138e-03 0. 2.06970219e-02
      2.61740863e-01 4.83109385e-01 4.83109385e-01 3.03197324e-01
      1.00831620e-01 3.70922655e-01 3.70922655e-01 3.70922655e-01
      3.15516919e-01 3.26694936e-01 3.70922655e-01 3.70922655e-01
      4.02571976e-01 4.02571976e-01 6.37554228e-02 4.02571976e-01
      4.02571976e-01 4.02571976e-01 3.13817039e-02 1.36175096e-01
      4.02571976e-01 2.12559000e-01 2.62948841e-01 8.03012177e-02
      5.21672487e-01 1.98569313e-01 6.89963698e-02 1.15765192e-01
      5.21672487e-01 5.21672487e-01</_>
    <_>
      4.41577405e-01 4.41577405e-01 6.49237335e-02 1.31456936e-02
      9.56059843e-02 8.43073726e-02 4.41577405e-01 4.41577405e-01
      4.41577405e-01 3.76559645e-01 3.76559645e-01 3.76559645e-01
      1.63380399e-01 2.20020890e-01 2.65240371e-01 3.76559645e-01
      3.76559645e-01 3.76559645e-01 3.67552906e-01 1.21772930e-01
      7.27481917e-02 5.18287495e-02 1.49132609e-01 1.55609578e-01
      5.13327777e-01 5.13327777e-01 5.13327777e-01 4.37128752e-01
      4.37128752e-01 1.28079668e-01 6.84508588e-03 2.60432642e-02
      4.37128752e-01 4.37128752e-01 4.37128752e-01 1.51975036e-01
      3.88350695e-01 3.88350695e-01 3.59330654e-01 1.29540488e-01
      1.57670632e-01 2.66982675e-01 3.88350695e-01 3.88350695e-01
      3.88350695e-01 4.41816330e-01 4.41816330e-01 1.20917551e-01
      2.09036712e-02 4.74698059e-02 4.76112515e-02 4.41816330e-01
      4.41816330e-01 4.41816330e-01 3.96864146e-01 2.15493262e-01
      3.96864146e-01 2.21693277e-01 7.89349973e-02 3.26670319e-01
      3.96864146e-01 3.96864146e-01 3.96864146e-01 4.85530585e-01
      4.85530585e-01 1.76362902e-01 2.69934833e-01 2.99747139e-01
      3.70845228e-01 2.73262292e-01 2.58396178e-01 2.25580767e-01
      2.39412606e-01 3.68991852e-01 1.26121968e-01 2.24386320e-01
      9.71134901e-02 3.05733122e-02 4.91594374e-01 4.91594374e-01
      4.91594374e-01</_>
    <_>
      4.82640892e-01 4.82640892e-01 5.96495299e-03 0. 1.61066521e-02
      6.48990646e-02 3.03080678e-01 4.47200090e-01 4.82640892e-01
      4.29079622e-01 5.65131009e-02 1.87311202e-01 1.80770501e-01
      3.07515264e-01 2.09911972e-01 4.47895437e-01 4.47895437e-01
      4.47895437e-01 1.42532676e-01 1.35067761e-01 1.70942619e-01
      3.91916156e-01 4.37288731e-01 3.98937047e-01 2.03564197e-01
      4.37288731e-01 4.37288731e-01 4.52385664e-01 4.52385664e-01
      3.38440649e-02 1.51879899e-03 1.71228983e-02 4.52385664e-01
      4.52385664e-01 3.35325718e-01 2.50969827e-01 3.93775433e-01
      3.93775433e-01 2.47143865e-01 3.30737121e-02 5.94783723e-02
      3.93775433e-01 3.93775433e-01 3.93775433e-01 3.93775433e-01
      4.42435086e-01 4.42435086e-01 9.38902497e-02 2.50995010e-02
      3.85088474e-02 7.68649951e-02 4.42435086e-01 4.42435086e-01
      4.42435086e-01 3.89346838e-01 1.15256824e-01 2.36651272e-01
      3.84117126e-01 1.46019548e-01 3.89346838e-01 3.89346838e-01
      3.89346838e-01 3.89346838e-01 4.62979406e-01 4.62979406e-01
      1.97995484e-01 1.52074069e-01 3.51970375e-01 2.06541911e-01
      1.89420983e-01 3.04621249e-01 4.57307130e-01 1.85543075e-01
      3.53270113e-01 6.82454109e-02 1.24139108e-01 7.74721205e-02
      6.33682730e-03 5.19447267e-01 5.19447267e-01 5.19447267e-01</_>
    <_>
      4.40794438e-01 4.40794438e-01 4.40794438e-01 3.06224707e-03
      6.81538275e-03 0. 1.55056223e-01 4.40794438e-01 4.40794438e-01
      1.10843495e-01 2.01142415e-01 3.86091650e-01 3.86091650e-01
      3.86091650e-01 2.58310735e-01 3.86091650e-01 3.86091650e-01
      3.62408608e-01 1.20967500e-01 3.86664331e-01 3.86664331e-01
      2.79045522e-01 3.86664331e-01 3.86664331e-01 3.86664331e-01
      3.86664331e-01 8.11290443e-02 1.53134584e-01 4.77525681e-01
      4.77525681e-01 4.00056057e-02 3.09538518e-05 0. 4.77525681e-01
      4.77525681e-01 2.40949675e-01 8.53097346e-03 3.85992252e-03
      1.15797678e-02 1.68929081e-02 4.18027490e-02 4.76461556e-03
      6.92151666e-01 6.92151666e-01 1.80735603e-01 1.19646132e-01
      5.25785565e-01 6.47618115e-01 4.39741492e-01 1.98456764e-01
      3.42968926e-02 1.58152804e-01 8.17807168e-02 1.33135051e-01
      1.80028323e-02 2.09133670e-01 5.44920623e-01 5.44920623e-01
      6.34773076e-02 4.68885712e-02 2.03301132e-01 5.44920623e-01
      1.10102758e-01 4.89600189e-02 1.21624873e-03 2.79638860e-02
      2.78013170e-01 7.20761809e-03 0. 1.78990424e-01 6.63631499e-01
      6.63631499e-01 6.80153310e-01 4.72958293e-03 1.40411779e-02
      2.69082864e-03 2.31764317e-02 0. 1.25998789e-02 2.58979440e-01
      6.80153310e-01</_>
    <_>
      4.58560765e-01 4.58560765e-01 5.05280159e-02 0. 0. 1.00309722e-01
      3.76420856e-01 4.58560765e-01 4.58560765e-01 4.56069201e-01
      5.46378121e-02 0. 0. 0. 1.52300447e-01 5.03584087e-01
      5.03584087e-01 5.03584087e-01 4.98415947e-01 4.98415947e-01
      4.98415947e-01 3.41755040e-02 0. 0. 0. 1.34190535e-02
      4.98415947e-01 1.38872519e-01 4.91128772e-01 4.91128772e-01
      1.45362434e-03 0. 2.84401983e-01 4.91128772e-01 4.09577668e-01
      5.95496818e-02 4.14718390e-01 4.14718390e-01 4.14718390e-01 0. 0.
      2.90156782e-01 4.14718390e-01 3.92452270e-01 2.63973504e-01
      4.30614293e-01 4.30614293e-01 2.61739582e-01 6.90386211e-03 0. 0.
      4.30614293e-01 4.30614293e-01 4.30614293e-01 1.36856019e-01
      2.20844299e-01 4.58665818e-01 4.58665818e-01 3.34523171e-02
      5.92952967e-03 4.58665818e-01 4.58665818e-01 2.92002261e-01
      3.92430007e-01 3.92430007e-01 3.84964794e-01 8.67254436e-02
      1.51765555e-01 3.06929231e-01 3.65247250e-01 3.92430007e-01
      3.57369035e-01 1.85676813e-01 3.92361879e-01 2.80102998e-01
      3.49438429e-01 2.63670206e-01 1.40695795e-01 4.15349215e-01
      4.15349215e-01 4.15349215e-01</_>
    <_>
      4.98807997e-01 4.98807997e-01 1.05548009e-01 0. 0. 4.59510162e-02
      3.06598604e-01 3.75945777e-01 4.98807997e-01 4.34933245e-01
      1.75472498e-02 0. 0. 0. 8.24452937e-02 5.15937746e-01
      5.15937746e-01 5.15937746e-01 3.73250395e-01 6.42311037e-01
      6.42311037e-01 6.95353895e-02 0. 0. 0. 0. 1.55914411e-01
      2.32657149e-01 4.72985506e-01 4.72985506e-01 2.18411107e-04 0.
      4.01434243e-01 4.72985506e-01 2.76585340e-01 1.79865286e-01
      4.04352516e-01 4.04352516e-01 2.82157212e-01 0. 0. 3.65466982e-01
      4.04352516e-01 4.00632709e-01 3.63004714e-01 4.30466145e-01
      3.78807336e-01 3.30635875e-01 4.09945212e-02 0. 0. 4.30466145e-01
      4.30466145e-01 4.30466145e-01 1.03919111e-01 2.45368600e-01
      4.64877844e-01 4.64877844e-01 0. 3.23120058e-02 4.64877844e-01
      4.64877844e-01 2.42614910e-01 4.12010878e-01 4.12010878e-01
      4.12010878e-01 5.35154603e-02 1.18982956e-01 1.80138960e-01
      4.04665321e-01 4.12010878e-01 3.21943074e-01 3.11553538e-01
      3.88029993e-01 1.76875457e-01 1.85510188e-01 1.61725670e-01
      7.47120380e-02 4.65575188e-01 4.65575188e-01 4.65575188e-01</_>
    <_>
      4.89400923e-01 1.61420524e-01 2.04379614e-02 0. 0. 1.02881983e-01
      4.89400923e-01 4.89400923e-01 4.89400923e-01 4.67025012e-01
      4.67025012e-01 1.33763626e-01 0. 0. 1.72606111e-02 4.52896535e-01
      3.43063146e-01 4.67025012e-01 5.56330860e-01 1.81433469e-01
      5.50950989e-02 0. 0. 0. 1.73144028e-01 5.56330860e-01
      5.56330860e-01 2.65456498e-01 2.51382202e-01 1.39875591e-01
      3.90578783e-03 2.34105694e-03 4.11001503e-01 5.40917277e-01
      5.40917277e-01 2.95376003e-01 5.06556988e-01 5.06556988e-01
      5.06556988e-01 5.17926039e-03 6.01007277e-03 2.71251071e-02
      2.15280086e-01 1.77910924e-01 3.82549882e-01 3.58464301e-01
      3.77401143e-01 1.65672153e-01 4.06879932e-03 8.67586955e-03
      9.97575093e-03 4.81878340e-01 4.81878340e-01 4.81878340e-01
      4.22804028e-01 1.71072736e-01 2.81328708e-01 2.25407168e-01
      3.35821986e-01 9.34182107e-02 4.22804028e-01 4.22804028e-01
      4.22804028e-01 4.21668738e-01 4.21668738e-01 4.21668738e-01
      1.54701114e-01 1.80341467e-01 4.21668738e-01 2.67829448e-01
      1.00999802e-01 3.82335931e-01 1.25313222e-01 1.66509241e-01
      4.19221818e-01 3.36120278e-01 1.04507409e-01 2.21534923e-01
      4.63645846e-01 4.63645846e-01 4.16271418e-01</_>
    <_>
      4.84429210e-01 2.24935517e-01 1.55301094e-02 0. 0. 7.50849321e-02
      4.84429210e-01 4.84429210e-01 4.84429210e-01 4.42504793e-01
      4.42504793e-01 1.27241448e-01 0. 0. 1.83590166e-02 4.42504793e-01
      4.42504793e-01 4.42504793e-01 5.37840307e-01 2.24350289e-01
      2.56195098e-01 7.44539574e-02 2.46826336e-02 2.31505875e-02
      6.44573942e-02 5.37840307e-01 5.37840307e-01 2.42782891e-01
      2.68925607e-01 2.15162471e-01 1.56896692e-02 1.80195309e-02
      2.73809791e-01 5.18748105e-01 5.18748105e-01 4.51129705e-01
      4.71442670e-01 4.71442670e-01 4.71442670e-01 8.12085439e-03
      3.98614407e-02 2.87617873e-02 2.40587190e-01 2.14228943e-01
      4.71442670e-01 4.18801248e-01 4.45009857e-01 1.64298907e-01
      2.94950674e-03 2.29269732e-02 2.22846474e-02 4.45009857e-01
      4.45009857e-01 4.45009857e-01 3.12771797e-01 1.50519669e-01
      4.11328197e-01 2.90926456e-01 2.36606404e-01 9.27807093e-02
      4.30810988e-01 4.30810988e-01 4.30810988e-01 4.11161035e-01
      4.11161035e-01 4.11161035e-01 9.37461182e-02 2.13242531e-01
      3.21667731e-01 3.83640885e-01 1.21522367e-01 4.11161035e-01
      1.10993534e-01 2.50773609e-01 4.55377877e-01 1.78648740e-01
      2.71724463e-01 1.59352392e-01 4.55377877e-01 4.55377877e-01
      4.08649802e-01</_>
    <_>
      7.11050451e-01 6.71046615e-01 0. 0. 0. 0. 0. 0. 1.92369178e-01
      6.97450042e-01 6.97450042e-01 0. 0. 1.26828148e-03 0. 0. 0.
      1.41996637e-01 6.34223819e-01 5.77744544e-01 0. 4.08010616e-04
      1.80036854e-02 1.14118168e-03 1.63819194e-02 5.18532842e-02
      5.04337728e-01 7.03795135e-01 7.03795135e-01 8.62125400e-03 0. 0.
      0. 8.83688102e-04 4.33692592e-04 4.73717563e-02 5.98276496e-01
      5.98276496e-01 0. 0. 1.78932220e-01 4.27292764e-01 2.24352553e-01
      9.32432264e-02 6.73236102e-02 4.30994004e-01 4.30994004e-01
      2.80140609e-01 3.43267739e-01 4.30994004e-01 4.30994004e-01
      1.87199727e-01 1.08890548e-01 9.72571969e-02 4.46200758e-01
      4.46200758e-01 4.46200758e-01 4.46200758e-01 4.46200758e-01
      6.26901956e-03 1.97882019e-03 8.56246159e-04 4.83490061e-03
      4.28611904e-01 1.05190732e-01 7.35257810e-04 1.02889225e-01
      4.28611904e-01 2.54116297e-01 4.28611904e-01 4.17922229e-01
      4.28611904e-01 4.13470984e-01 4.13470984e-01 2.29062006e-01
      3.68308008e-01 4.13470984e-01 2.76087642e-01 1.48382634e-01
      1.60232514e-01 4.13470984e-01</_>
    <_>
      7.02878356e-01 7.02878356e-01 0. 0. 0. 0. 0. 0. 7.00543374e-02
      7.02916622e-01 7.02916622e-01 0. 0. 9.49995767e-04 4.56913114e-02
      1.02355101e-04 0. 5.20670563e-02 5.85675001e-01 5.85675001e-01
      5.88002428e-02 5.41631766e-02 2.00554192e-01 5.06858826e-01
      6.07270934e-03 4.89909528e-03 6.73897788e-02 7.00181544e-01
      7.00181544e-01 0. 0. 1.04833785e-02 1.09110489e-01 1.52880969e-02
      0. 1.59194916e-02 5.73035896e-01 5.73035896e-01 2.65833316e-03
      1.16375263e-03 5.78525811e-02 5.73035896e-01 6.98031858e-02
      3.88958282e-03 3.04097924e-02 2.81398177e-01 5.24789631e-01
      5.24789631e-01 9.06766355e-02 2.75507569e-01 5.24789631e-01
      6.53134286e-02 1.20368239e-03 3.11069973e-02 4.92104590e-01
      4.92104590e-01 1.50009483e-01 1.40249968e-01 4.92104590e-01
      2.79339343e-01 3.33041757e-01 1.06788315e-01 1.61431924e-01
      4.70396012e-01 1.22880317e-01 2.06486584e-04 6.54349700e-02
      4.25192267e-01 4.70396012e-01 3.41230452e-01 1.21969007e-01
      4.70396012e-01 4.33754057e-01 4.33754057e-01 4.33754057e-01
      2.56634355e-02 2.21628338e-01 4.33754057e-01 7.09623992e-02
      1.18635567e-02 4.33754057e-01</_>
    <_>
      4.71998036e-01 1.99897841e-01 1.32451475e-01 2.87336502e-02
      5.67196965e-01 5.67196965e-01 2.60796577e-01 0. 4.22629900e-02
      6.01954460e-01 6.01954460e-01 1.11048818e-01 4.23435494e-02
      4.69482780e-01 8.65554735e-02 1.19764715e-01 3.58308442e-02
      1.07856564e-01 6.30148411e-01 4.34650600e-01 4.17977775e-04
      3.28711653e-03 8.27675313e-02 1.91995241e-02 4.01511192e-02
      4.20861691e-02 6.30148411e-01 7.01636493e-01 7.01636493e-01
      7.46172806e-03 0. 2.90540438e-02 5.25212847e-02 4.79139537e-02
      1.44888577e-03 4.95218113e-02 5.47199726e-01 5.47199726e-01 0. 0.
      3.02288562e-01 5.47199726e-01 5.43023944e-02 8.17322545e-03
      4.31166179e-02 4.23785985e-01 4.23785985e-01 4.23785985e-01
      2.58460730e-01 4.23785985e-01 4.23785985e-01 4.62597944e-02
      3.91924269e-02 1.65275261e-01 5.04074931e-01 5.04074931e-01
      5.04074931e-01 1.15770683e-01 3.04945767e-01 1.05698384e-01
      2.81492919e-01 8.47833008e-02 1.69404209e-01 4.48909670e-01
      1.06757134e-01 0. 9.07685887e-03 4.48909670e-01 4.48909670e-01
      4.02496397e-01 1.26306832e-01 4.48909670e-01 4.05915350e-01
      4.05915350e-01 4.05915350e-01 7.66149536e-02 4.05915350e-01
      4.05915350e-01 3.49570177e-02 1.57943256e-02 4.05915350e-01</_>
    <_>
      4.73597199e-01 2.64677823e-01 4.73597199e-01 4.73597199e-01
      4.73597199e-01 1.64908722e-01 2.35069450e-02 0. 1.70460008e-02
      6.84602678e-01 6.84602678e-01 1.05886515e-02 1.70125626e-02
      1.29109636e-01 1.75208554e-01 7.40538463e-02 2.50366554e-02
      4.38679755e-02 6.17987454e-01 4.69665527e-01 2.63049034e-03
      2.01000031e-02 5.46356961e-02 5.01195304e-02 3.07647604e-02
      5.07204793e-02 6.17987454e-01 7.00773478e-01 7.00773478e-01
      1.77502334e-02 1.67892333e-02 4.47183661e-02 6.59404099e-02
      5.11210188e-02 3.77287529e-03 3.55687439e-02 5.37680924e-01
      5.37680924e-01 3.46586644e-03 1.91718771e-03 3.51009637e-01
      5.37680924e-01 5.29687107e-02 1.05499392e-02 3.44637372e-02
      4.13017482e-01 4.13017482e-01 4.13017482e-01 2.82779545e-01
      4.13017482e-01 4.13017482e-01 1.69463977e-01 7.00405985e-02
      1.71374023e-01 5.21156132e-01 5.21156132e-01 5.21156132e-01
      1.00726426e-01 1.55180365e-01 1.12075359e-01 2.90625662e-01
      1.17781036e-01 1.86710313e-01 4.52186912e-01 1.08549438e-01
      6.95681665e-03 6.47280831e-03 4.50884670e-01 4.52186912e-01
      3.85828882e-01 1.34276003e-01 4.52186912e-01 4.17615265e-01
      4.17615265e-01 4.17615265e-01 1.10829130e-01 3.48401934e-01
      3.86633873e-01 1.04519345e-01 6.43500313e-02 4.17615265e-01</_>
    <_>
      4.97154862e-01 7.98920318e-02 0. 0. 0. 0. 4.97154862e-01
      4.97154862e-01 4.97154862e-01 6.92009032e-01 6.92009032e-01
      1.00903094e-01 7.05747008e-02 0. 0. 5.79711460e-02 4.67433929e-02
      1.20958745e-01 6.43745899e-01 3.95211697e-01 6.10568263e-02
      5.09175546e-02 2.05171807e-03 0. 7.02707935e-03 4.67856079e-02
      6.43745899e-01 7.00296938e-01 7.00296938e-01 4.78733703e-03 0.
      5.77824749e-03 2.72545759e-02 6.34035245e-02 3.88313942e-02
      7.64901936e-02 5.58480024e-01 5.58480024e-01 0. 0. 2.31300235e-01
      5.58480024e-01 6.63125589e-02 8.92311614e-03 2.73197759e-02
      4.20185089e-01 4.20185089e-01 4.20185089e-01 2.32977122e-01
      4.20185089e-01 4.20185089e-01 1.08653359e-01 6.98020309e-02
      2.05106676e-01 5.38633704e-01 5.38633704e-01 5.38633704e-01
      1.37053981e-01 2.08478808e-01 8.40455592e-02 1.91865757e-01
      1.20389715e-01 6.02100007e-02 4.28563684e-01 9.52234194e-02 0.
      6.71163620e-03 4.28563684e-01 4.28563684e-01 4.28563684e-01
      2.61289269e-01 4.28563684e-01 4.04258549e-01 4.04258549e-01
      4.04258549e-01 7.26222396e-02 4.02723968e-01 4.04258549e-01
      1.04613207e-01 2.07846388e-02 4.04258549e-01</_>
    <_>
      4.97807235e-01 4.97807235e-01 4.97807235e-01 4.97807235e-01 0. 0.
      0. 0. 6.14813641e-02 6.35569155e-01 6.35569155e-01 3.89555842e-01
      1.69712082e-01 0. 0. 0. 0. 7.21268207e-02 6.60706937e-01
      3.43449831e-01 1.61438657e-04 0. 2.17452552e-03 0. 7.39363069e-03
      4.81595993e-02 6.60706937e-01 7.03444600e-01 7.03444600e-01
      1.57489013e-02 1.41105126e-03 4.94196499e-03 2.57099755e-02
      1.95157211e-02 4.43926867e-04 4.46434021e-02 5.57913125e-01
      5.57913125e-01 1.36849806e-02 1.57687953e-03 2.37314969e-01
      5.57913125e-01 6.21968769e-02 2.28163903e-04 1.58374291e-02
      4.19262379e-01 4.19262379e-01 4.19262379e-01 2.34019488e-01
      4.19262379e-01 4.19262379e-01 1.09080620e-01 6.98047355e-02
      2.13004187e-01 5.39450824e-01 5.39450824e-01 5.39450824e-01
      1.40192300e-01 2.06605315e-01 8.11129361e-02 1.88487798e-01
      1.15811087e-01 6.10932522e-02 4.29357529e-01 9.53273550e-02 0.
      7.38904299e-03 4.29357529e-01 4.29357529e-01 4.29357529e-01
      2.54616737e-01 4.29357529e-01 4.03980583e-01 4.03980583e-01
      4.03980583e-01 7.28580356e-02 4.03571844e-01 4.03980583e-01
      1.06424168e-01 2.14029998e-02 4.03980583e-01</_>
    <_>
      7.00209260e-01 7.00209260e-01 0. 0. 0. 0. 0. 0. 1.11464597e-01
      7.00935364e-01 7.00935364e-01 0. 0. 0. 0. 0. 0. 1.01892464e-01
      6.59083426e-01 6.45669699e-01 0. 6.51987910e-04 1.99533277e-03
      8.04076408e-05 2.62475316e-03 6.22193888e-03 3.76947850e-01
      7.04115033e-01 7.04115033e-01 1.37440069e-03 0. 0. 0.
      1.50266557e-03 3.14280274e-04 3.75635549e-02 6.16454005e-01
      6.16454005e-01 0. 0. 7.14057013e-02 4.56259221e-01 1.40391946e-01
      1.45789217e-02 2.49050595e-02 4.33478564e-01 4.33478564e-01
      2.51665622e-01 3.99808973e-01 4.33478564e-01 4.33478564e-01
      1.11333929e-01 3.31981927e-02 8.58788937e-02 4.80975449e-01
      4.80975449e-01 3.42261285e-01 4.39787060e-01 4.70996529e-01
      7.21108867e-04 1.04015535e-02 3.23345955e-03 2.99206958e-03
      3.89119118e-01 3.18182528e-01 2.04791169e-04 1.37389347e-01
      3.89119118e-01 3.89119118e-01 3.89119118e-01 3.44859898e-01
      3.89119118e-01 3.99211526e-01 3.99211526e-01 3.12600076e-01
      2.27654263e-01 3.99211526e-01 3.99211526e-01 1.99443445e-01
      9.91951078e-02 3.99211526e-01</_>
    <_>
      9.31775749e-01 2.30289638e-01 0. 0. 0. 0. 0. 0. 2.63561487e-01
      7.02025592e-01 7.02025592e-01 0. 0. 0. 0. 0. 0. 8.55113864e-02
      5.88137805e-01 5.88137805e-01 0. 7.07222556e-04 3.03839752e-03 0.
      2.39722170e-02 1.78162068e-01 5.19604683e-01 7.04320371e-01
      7.04320371e-01 0. 0. 0. 0. 1.07465144e-02 5.31342952e-03
      2.62914170e-02 5.71174324e-01 5.71174324e-01 0. 0. 8.88660699e-02
      5.70756257e-01 8.79884362e-02 1.27826082e-02 1.58509053e-02
